{"learner":{"attributes":{"scikit_learn":"{\"_estimator_type\": \"regressor\"}"},"feature_names":[],"feature_types":[],"gradient_booster":{"model":{"gbtree_model_param":{"num_parallel_tree":"1","num_trees":"100"},"iteration_indptr":[0,1,2,3,4,5,6,7,8,9,10,11,12,13,14,15,16,17,18,19,20,21,22,23,24,25,26,27,28,29,30,31,32,33,34,35,36,37,38,39,40,41,42,43,44,45,46,47,48,49,50,51,52,53,54,55,56,57,58,59,60,61,62,63,64,65,66,67,68,69,70,71,72,73,74,75,76,77,78,79,80,81,82,83,84,85,86,87,88,89,90,91,92,93,94,95,96,97,98,99,100],"tree_info":[0,0,0,0,0,0,0,0,0,0,0,0,0,0,0,0,0,0,0,0,0,0,0,0,0,0,0,0,0,0,0,0,0,0,0,0,0,0,0,0,0,0,0,0,0,0,0,0,0,0,0,0,0,0,0,0,0,0,0,0,0,0,0,0,0,0,0,0,0,0,0,0,0,0,0,0,0,0,0,0,0,0,0,0,0,0,0,0,0,0,0,0,0,0,0,0,0,0,0,0],"trees":[{"base_weights":[-9.5845223E-4,4.9383022E3,-4.2808917E2,7.13512E3,9.371719E2,-6.3777704E2,7.8682314E3,-6.761829E2,8.416819E3,-3.2389517E3,9.752126E3,2.5730483E3,-1.0624424E3,1.0632232E4,-3.3901562E2,3.0303843E3,-2.881353E3,2.761608E3,9.951189E3,3.2998472E3,-5.041661E3,1.260915E4,-1.1085029E3,-2.1417112E3,5.022246E3,-5.059279E3,-4.217394E2,1.2650282E4,3.613203E2,2.8483203E3,-1.024004E3,-2.284053E3,7.5947354E3,-2.2188157E3,8.296735E3,-8.58303E2,1.0632634E4,7.531961E2,-6.509601E3,4.1214556E3,1.0445972E3,6.103108E3,-5.500492E3,-2.4668308E3,8.398805E3,-1.0249236E4,-2.7969465E3,-3.9955042E3,-3.40257E2,4.5356523E3,1.5503207E3,3.1319708E2,-1.5060294E2,6.2847073E1,1.2188971E3,3.0453962E3,-1.125293E1,1.2358472E3,-1.4499795E3,3.4469963E3,-1.9245294E2,3.7609712E3,1.3469521E3,-3.029791E3,-3.710049E2,7.661354E2,2.7041958E3,-2.1443704E3,1.7004962E3,-1.6037823E3,2.2520957E3,-4.878049E2,3.0549873E3,-5.9147644E2,-3.916435E3,-2.3125466E3,-1.7529033E2,-3.9337686E2,1.5221558E2],"categories":[],"categories_nodes":[],"categories_segments":[],"categories_sizes":[],"default_left":[0,0,0,0,0,0,0,0,0,0,0,0,0,0,0,0,0,0,0,0,0,0,0,0,0,0,0,0,0,0,0,0,0,0,0,0,0,0,0,0,0,0,0,0,0,0,0,0,0,0,0,0,0,0,0,0,0,0,0,0,0,0,0,0,0,0,0,0,0,0,0,0,0,0,0,0,0,0,0],"id":0,"left_children":[1,3,5,7,9,11,13,15,17,19,21,23,25,27,29,31,-1,33,35,-1,37,39,-1,41,43,45,47,49,51,53,-1,-1,55,57,59,-1,61,-1,63,-1,-1,65,67,69,71,73,75,-1,77,-1,-1,-1,-1,-1,-1,-1,-1,-1,-1,-1,-1,-1,-1,-1,-1,-1,-1,-1,-1,-1,-1,-1,-1,-1,-1,-1,-1,-1,-1],"loss_changes":[1.4840486E9,4.8553946E8,1.1288242E9,3.6611405E8,8.046458E8,8.631189E8,3.66562E8,2.2766602E8,2.4151142E8,4.4047226E8,3.1552243E8,8.652622E8,1.4267845E9,2.4415578E8,5.871693E7,3.007349E8,0E0,2.3894715E8,2.3995904E8,0E0,1.7155222E8,1.399296E7,0E0,7.535762E8,1.2597964E9,8.754218E8,5.0197645E8,1.0658074E8,2.292202E6,8.764766E6,0E0,0E0,7.84307E7,1.0276648E8,1.215392E8,0E0,2.1270912E8,0E0,2.1464874E8,0E0,0E0,5.9633344E7,3.9010893E8,4.995834E8,6.247895E8,5.0839808E8,5.932086E8,0E0,3.95734E8,0E0,0E0,0E0,0E0,0E0,0E0,0E0,0E0,0E0,0E0,0E0,0E0,0E0,0E0,0E0,0E0,0E0,0E0,0E0,0E0,0E0,0E0,0E0,0E0,0E0,0E0,0E0,0E0,0E0,0E0],"parents":[2147483647,0,0,1,1,2,2,3,3,4,4,5,5,6,6,7,7,8,8,9,9,10,10,11,11,12,12,13,13,14,14,15,15,17,17,18,18,20,20,21,21,23,23,24,24,25,25,26,26,27,27,28,28,29,29,32,32,33,33,34,34,36,36,38,38,41,41,42,42,43,43,44,44,45,45,46,46,48,48],"right_children":[2,4,6,8,10,12,14,16,18,20,22,24,26,28,30,32,-1,34,36,-1,38,40,-1,42,44,46,48,50,52,54,-1,-1,56,58,60,-1,62,-1,64,-1,-1,66,68,70,72,74,76,-1,78,-1,-1,-1,-1,-1,-1,-1,-1,-1,-1,-1,-1,-1,-1,-1,-1,-1,-1,-1,-1,-1,-1,-1,-1,-1,-1,-1,-1,-1,-1],"split_conditions":[-1.4900204E0,5.161261E-1,1.5858327E0,-1.1432928E0,-1.5608151E0,-1.3421615E0,7.8801674E-1,1.2545434E-1,-1.0554645E0,-1.4582056E0,1.4237778E0,-4.8160326E-2,-9.189421E-1,-1.0944977E-1,-1.5031099E0,-1.6911765E0,-2.881353E3,-4.143416E-1,-1.7481588E0,3.2998472E3,-1.7188653E0,1.0851413E0,-1.1085029E3,-7.8454816E-1,-1.594728E0,-8.6273545E-1,-1.7527572E0,1.4237778E0,-6.9760597E-1,1.0851413E0,-1.024004E3,-2.284053E3,-1.2918551E0,-6.9760597E-1,7.8801674E-1,-8.58303E2,-1.514416E0,7.531961E2,1.3303921E0,4.1214556E3,1.0445972E3,-1.4513913E0,1.5685897E0,1.0851413E0,-1.1432928E0,-9.529316E-1,-1.2261175E0,-3.9955042E3,-1.033569E-1,4.5356523E3,1.5503207E3,3.1319708E2,-1.5060294E2,6.2847073E1,1.2188971E3,3.0453962E3,-1.125293E1,1.2358472E3,-1.4499795E3,3.4469963E3,-1.9245294E2,3.7609712E3,1.3469521E3,-3.029791E3,-3.710049E2,7.661354E2,2.7041958E3,-2.1443704E3,1.7004962E3,-1.6037823E3,2.2520957E3,-4.878049E2,3.0549873E3,-5.9147644E2,-3.916435E3,-2.3125466E3,-1.7529033E2,-3.9337686E2,1.5221558E2],"split_indices":[6,5,5,0,6,4,0,4,4,4,3,1,4,2,2,6,0,5,5,0,6,0,0,5,4,2,5,3,0,0,0,0,0,0,0,0,6,0,5,0,0,5,2,0,0,6,4,0,0,0,0,0,0,0,0,0,0,0,0,0,0,0,0,0,0,0,0,0,0,0,0,0,0,0,0,0,0,0,0],"split_type":[0,0,0,0,0,0,0,0,0,0,0,0,0,0,0,0,0,0,0,0,0,0,0,0,0,0,0,0,0,0,0,0,0,0,0,0,0,0,0,0,0,0,0,0,0,0,0,0,0,0,0,0,0,0,0,0,0,0,0,0,0,0,0,0,0,0,0,0,0,0,0,0,0,0,0,0,0,0,0],"sum_hessian":[7E2,5.5E1,6.45E2,3.5E1,2E1,6.3E2,1.5E1,5E0,3E1,1.4E1,6E0,7.3E1,5.57E2,1.1E1,4E0,4E0,1E0,7E0,2.3E1,1E0,1.3E1,5E0,1E0,2.5E1,4.8E1,7.6E1,4.81E2,9E0,2E0,2E0,2E0,1E0,3E0,4E0,3E0,1E0,2.2E1,2E0,1.1E1,4E0,1E0,7E0,1.8E1,1.5E1,3.3E1,2.2E1,5.4E1,2E0,4.79E2,6E0,3E0,1E0,1E0,1E0,1E0,2E0,1E0,1E0,3E0,2E0,1E0,1.6E1,6E0,6E0,5E0,4E0,3E0,1.6E1,2E0,1.2E1,3E0,5E0,2.8E1,6E0,1.6E1,1.6E1,3.8E1,2.23E2,2.56E2],"tree_param":{"num_deleted":"0","num_feature":"7","num_nodes":"79","size_leaf_vector":"1"}},{"base_weights":[1.6239956E1,3.6330361E3,-2.973155E2,-2.5941223E2,4.9366953E3,-4.5435233E2,5.9144062E3,-2.7476086E3,7.27003E3,8.038689E3,2.7185962E3,1.9232065E3,-7.592271E2,7.9632764E3,-1.857629E2,2.0711604E3,-7.911571E3,2.487311E3,6.310515E2,-7.2955756E2,8.845089E3,-1.9878944E3,4.225598E3,4.3881906E2,9.308576E3,-3.5270361E3,-3.040069E2,1.0987091E4,3.1082805E3,2.4210723E3,-8.192031E2,5.5040586E3,-2.7789343E3,-9.564844E0,-2.8443396E3,1.1630803E4,4.6055244E3,5.633484E3,-3.8702295E3,-9.5023413E2,7.6180137E3,-2.4282031E3,1.3490636E4,1.480974E2,-5.6615757E3,3.755471E3,-5.1560486E2,3.815719E3,1.3314321E3,4.432079E3,3.071224E2,5.3419926E1,1.0360626E3,2.7475186E3,-3.6092285E2,1.01880414E3,3.6706953E3,-1.8780343E3,2.1156184E3,1.9460316E3,-4.092219E2,-1.5378945E3,-1.5295899E1,8.056889E2,-1.3248727E3,3.3883884E3,-1.4176886E3,1.7947266E2,-1.0909298E3,1.0172828E3,4.298769E3,1.6721461E3,-2.5364917E3,-8.121209E2,-2.703663E3,1.5973743E3,-2.700947E3,-8.8479294E1,-1.6831277E3,4.0584903E2,1.5022657E3,2.662175E2,-1.280124E2],"categories":[],"categories_nodes":[],"categories_segments":[],"categories_sizes":[],"default_left":[0,0,0,0,0,0,0,0,0,0,0,0,0,0,0,0,0,0,0,0,0,0,0,0,0,0,0,0,0,0,0,0,0,0,0,0,0,0,0,0,0,0,0,0,0,0,0,0,0,0,0,0,0,0,0,0,0,0,0,0,0,0,0,0,0,0,0,0,0,0,0,0,0,0,0,0,0,0,0,0,0,0,0],"id":1,"left_children":[1,3,5,7,9,11,13,15,17,19,21,23,25,27,29,31,33,-1,-1,-1,35,-1,37,39,41,43,45,47,49,51,-1,53,-1,-1,-1,55,57,59,61,63,65,67,69,71,73,75,77,-1,-1,79,81,-1,-1,-1,-1,-1,-1,-1,-1,-1,-1,-1,-1,-1,-1,-1,-1,-1,-1,-1,-1,-1,-1,-1,-1,-1,-1,-1,-1,-1,-1,-1,-1],"loss_changes":[7.960605E8,2.854485E8,6.3284026E8,3.0099616E8,2.6712826E8,4.5884544E8,2.0145446E8,3.1499344E8,3.66E6,1.650487E8,3.9415296E8,7.852332E8,7.045069E8,1.4201632E8,3.9782028E7,3.233506E8,7.390362E7,0E0,0E0,0E0,1.353975E8,0E0,2.839568E8,6.155482E8,6.217649E8,6.2057114E8,4.1596336E8,2.295008E7,2.0887832E7,6.332546E6,0E0,1.5807902E8,0E0,0E0,0E0,3.274752E6,2.5681214E8,1.2826707E8,1.8927816E7,6.671609E8,5.072023E8,1.6802026E7,2.7636352E7,1.4474625E9,4.705769E8,5.2841053E8,5.1439622E8,0E0,0E0,3.13728E5,1.6561148E6,0E0,0E0,0E0,0E0,0E0,0E0,0E0,0E0,0E0,0E0,0E0,0E0,0E0,0E0,0E0,0E0,0E0,0E0,0E0,0E0,0E0,0E0,0E0,0E0,0E0,0E0,0E0,0E0,0E0,0E0,0E0,0E0],"parents":[2147483647,0,0,1,1,2,2,3,3,4,4,5,5,6,6,7,7,8,8,9,9,10,10,11,11,12,12,13,13,14,14,15,15,16,16,20,20,22,22,23,23,24,24,25,25,26,26,27,27,28,28,29,29,31,31,35,35,36,36,37,37,38,38,39,39,40,40,41,41,42,42,43,43,44,44,45,45,46,46,49,49,50,50],"right_children":[2,4,6,8,10,12,14,16,18,20,22,24,26,28,30,32,34,-1,-1,-1,36,-1,38,40,42,44,46,48,50,52,-1,54,-1,-1,-1,56,58,60,62,64,66,68,70,72,74,76,78,-1,-1,80,82,-1,-1,-1,-1,-1,-1,-1,-1,-1,-1,-1,-1,-1,-1,-1,-1,-1,-1,-1,-1,-1,-1,-1,-1,-1,-1,-1,-1,-1,-1,-1,-1],"split_conditions":[-1.4900204E0,-9.9473053E-1,1.5858327E0,-1.550418E0,1.9376765E-1,-1.3558137E0,7.8801674E-1,-7.970934E-1,7.669581E-1,-1.7481588E0,4.908922E-1,1.2337036E0,-9.189421E-1,-5.922486E-1,-1.5031099E0,5.3502154E-1,-6.729497E-1,2.487311E3,6.310515E2,-7.2955756E2,3.4916648E-1,-1.9878944E3,-1.514416E0,1.3022329E0,-4.8160326E-2,-7.539602E-1,-7.960719E-1,1.4237778E0,-1.0944977E-1,1.0851413E0,-8.192031E2,2.5959482E-2,-2.7789343E3,-9.564844E0,-2.8443396E3,-1.5350865E0,5.7855576E-1,1.4317833E0,1.2337036E0,-8.611136E-2,1.570403E0,1.3822658E0,-1.6834675E0,2.5959482E-2,1.1558478E0,1.0851413E0,1.570403E0,3.815719E3,1.3314321E3,-9.9473053E-1,-6.9760597E-1,5.3419926E1,1.0360626E3,2.7475186E3,-3.6092285E2,1.01880414E3,3.6706953E3,-1.8780343E3,2.1156184E3,1.9460316E3,-4.092219E2,-1.5378945E3,-1.5295899E1,8.056889E2,-1.3248727E3,3.3883884E3,-1.4176886E3,1.7947266E2,-1.0909298E3,1.0172828E3,4.298769E3,1.6721461E3,-2.5364917E3,-8.121209E2,-2.703663E3,1.5973743E3,-2.700947E3,-8.8479294E1,-1.6831277E3,4.0584903E2,1.5022657E3,2.662175E2,-1.280124E2],"split_indices":[6,0,5,6,0,4,0,2,2,5,0,0,4,2,2,4,3,0,0,0,5,0,6,6,1,6,4,3,2,0,0,3,0,0,0,5,5,2,0,5,6,0,4,3,1,0,6,0,0,0,0,0,0,0,0,0,0,0,0,0,0,0,0,0,0,0,0,0,0,0,0,0,0,0,0,0,0,0,0,0,0,0,0],"split_type":[0,0,0,0,0,0,0,0,0,0,0,0,0,0,0,0,0,0,0,0,0,0,0,0,0,0,0,0,0,0,0,0,0,0,0,0,0,0,0,0,0,0,0,0,0,0,0,0,0,0,0,0,0,0,0,0,0,0,0,0,0,0,0,0,0,0,0,0,0,0,0,0,0,0,0,0,0,0,0,0,0,0,0],"sum_hessian":[7E2,5.5E1,6.45E2,1.4E1,4.1E1,6.3E2,1.5E1,1.1E1,3E0,1.6E1,2.5E1,7.1E1,5.59E2,1.1E1,4E0,6E0,5E0,2E0,1E0,1E0,1.5E1,3E0,2.2E1,6E1,1.1E1,7.8E1,4.81E2,6E0,5E0,2E0,2E0,5E0,1E0,1E0,4E0,8E0,7E0,1.9E1,3E0,5.1E1,9E0,3E0,8E0,2.9E1,4.9E1,2.3E1,4.58E2,4E0,2E0,3E0,2E0,1E0,1E0,3E0,2E0,1E0,7E0,1E0,6E0,1.7E1,2E0,2E0,1E0,2.5E1,2.6E1,7E0,2E0,1E0,2E0,1E0,7E0,1.8E1,1.1E1,2.7E1,2.2E1,2.1E1,2E0,4.4E2,1.8E1,1E0,2E0,1E0,1E0],"tree_param":{"num_deleted":"0","num_feature":"7","num_nodes":"83","size_leaf_vector":"1"}},{"base_weights":[2.2965014E1,2.5800066E3,-1.9873358E2,6.828094E3,1.7297399E3,-1.1004902E4,-1.3120107E2,-6.20124E2,2.459513E3,1.0392681E3,2.7195342E3,-3.8556853E3,-8.194134E2,-2.5169966E2,4.606569E3,1.7681375E3,-1.5435944E3,-1.9891129E2,-3.3548923E3,6.1737495E3,-7.597813E1,3.3486174E3,-1.8935594E3,-8.4822003E2,5.6117615E2,7.688752E3,1.2215562E3,2.0579114E3,-6.5536255E2,1.6669149E3,1.7588112E2,-2.923062E3,1.2584585E2,4.0066672E2,-4.3961942E2,6.872199E2,-1.0981606E2,6.362039E2,2.693003E3,5.611629E2,-1.08810646E2,4.5406937E1,8.8065326E2],"categories":[],"categories_nodes":[],"categories_segments":[],"categories_sizes":[],"default_left":[0,0,0,0,0,0,0,0,0,0,0,0,0,0,0,0,0,0,0,0,0,0,0,0,0,0,0,0,0,0,0,0,0,0,0,0,0,0,0,0,0,0,0],"id":2,"left_children":[1,3,5,7,9,11,13,-1,-1,15,-1,-1,-1,17,19,21,-1,23,-1,25,27,29,31,33,35,37,39,41,-1,-1,-1,-1,-1,-1,-1,-1,-1,-1,-1,-1,-1,-1,-1],"loss_changes":[3.979044E8,1.904616E8,4.699861E8,1.2664682E8,2.3369262E8,2.6033024E7,3.682447E8,0E0,0E0,2.119465E8,0E0,0E0,0E0,3.601593E8,1.1788342E8,2.436176E8,0E0,3.094267E8,0E0,8.063875E7,2.6992802E7,1.7360224E8,2.40133E8,4.575061E8,4.6430675E8,4.550461E7,4.7911015E6,4.575265E6,0E0,0E0,0E0,0E0,0E0,0E0,0E0,0E0,0E0,0E0,0E0,0E0,0E0,0E0,0E0],"parents":[2147483647,0,0,1,1,2,2,3,3,4,4,5,5,6,6,9,9,13,13,14,14,15,15,17,17,19,19,20,20,21,21,22,22,23,23,24,24,25,25,26,26,27,27],"right_children":[2,4,6,8,10,12,14,-1,-1,16,-1,-1,-1,18,20,22,-1,24,-1,26,28,30,32,34,36,38,40,42,-1,-1,-1,-1,-1,-1,-1,-1,-1,-1,-1,-1,-1,-1,-1],"split_conditions":[-1.4900204E0,-1.396894E0,-1.462623E0,-8.461683E-1,-1.5037183E0,9.36579E-1,1.5858327E0,-6.20124E2,2.459513E3,1.4553404E0,2.7195342E3,-3.8556853E3,-8.194134E2,1.688636E0,7.8801674E-1,5.3502154E-1,-1.5435944E3,1.9376765E-1,-3.3548923E3,-2.565018E-1,-1.5031099E0,-6.209019E-1,-1.1432928E0,-9.3226737E-1,7.8801674E-1,-8.461683E-1,1.9604614E-1,1.0851413E0,-6.5536255E2,1.6669149E3,1.7588112E2,-2.923062E3,1.2584585E2,4.0066672E2,-4.3961942E2,6.872199E2,-1.0981606E2,6.362039E2,2.693003E3,5.611629E2,-1.08810646E2,4.5406937E1,8.8065326E2],"split_indices":[6,5,6,0,6,0,5,0,0,5,0,0,0,4,0,4,0,0,0,2,2,2,0,2,0,0,2,0,0,0,0,0,0,0,0,0,0,0,0,0,0,0,0],"split_type":[0,0,0,0,0,0,0,0,0,0,0,0,0,0,0,0,0,0,0,0,0,0,0,0,0,0,0,0,0,0,0,0,0,0,0,0,0,0,0,0,0,0,0],"sum_hessian":[7E2,5.5E1,6.45E2,8E0,4.7E1,3E0,6.42E2,1E0,7E0,4.4E1,3E0,2E0,1E0,6.27E2,1.5E1,4E1,4E0,6.25E2,2E0,1.1E1,4E0,2.8E1,1.2E1,3.37E2,2.88E2,8E0,3E0,2E0,2E0,1.5E1,1.3E1,2E0,1E1,7.4E1,2.63E2,1E2,1.88E2,2E0,6E0,2E0,1E0,1E0,1E0],"tree_param":{"num_deleted":"0","num_feature":"7","num_nodes":"43","size_leaf_vector":"1"}},{"base_weights":[1.4109191E1,-5.2608647E3,9.031675E1,-7.0811895E3,1.6683092E3,-4.1742154E2,9.0007776E2,3.7526633E2,-8.279061E3,-9.977078E2,2.0664856E3,4.565706E3,1.3647882E2,-3.2035156E3,-9.630418E2,-5.4702503E1,-2.9163267E3,1.0721103E4,6.965241E2,6.4137695E3,-5.0143164E3,1.2055007E3,-2.7048003E3,-1.01589386E3,4.216048E3,2.2063252E3,-4.6900117E3,1.53427E3,1.3974381E4,-9.02043E3,1.5693302E3,8.520173E3,2.0437511E3,-3.4433618E3,1.159391E3,-4.8368558E2,5.348907E3,-3.8783638E3,4.5067183E3,-1.3073699E3,9.996074E1,2.1611165E3,-5.5235724E2,-2.967413E3,1.3343844E3,-1.7656996E3,7.154435E2,2.0971755E3,-7.84409E2,4.497766E3,1.0270756E3,-3.9844824E3,1.8428184E3,1.5751271E3,-6.8125995E2,2.7633044E3,4.60127E1,-2.751193E2,2.9025168E3,-1.163797E3,1.7434924E3,1.5553481E3,-5.596305E2,3.051051E3,8.986009E2,1.5935941E3,-1.4839072E3,-1.8545045E3,2.5330935E3],"categories":[],"categories_nodes":[],"categories_segments":[],"categories_sizes":[],"default_left":[0,0,0,0,0,0,0,0,0,0,0,0,0,0,0,0,0,0,0,0,0,0,0,0,0,0,0,0,0,0,0,0,0,0,0,0,0,0,0,0,0,0,0,0,0,0,0,0,0,0,0,0,0,0,0,0,0,0,0,0,0,0,0,0,0,0,0,0,0],"id":3,"left_children":[1,3,5,7,-1,9,11,-1,13,15,17,19,21,-1,-1,23,25,27,29,31,33,35,37,39,41,43,45,47,49,51,53,55,57,-1,59,61,63,65,67,-1,-1,-1,-1,-1,-1,-1,-1,-1,-1,-1,-1,-1,-1,-1,-1,-1,-1,-1,-1,-1,-1,-1,-1,-1,-1,-1,-1,-1,-1],"loss_changes":[2.8227216E8,2.3637235E8,2.848892E8,1.0018291E8,0E0,6.1608845E8,7.467286E8,0E0,6.301677E7,6.2584704E8,9.529083E8,8.465672E8,6.7756115E8,0E0,0E0,9.6075E8,1.0461483E9,3.0732006E8,6.1630816E8,3.415826E8,3.3254013E8,1.1364229E9,5.3373235E8,8.626113E8,7.914366E8,8.5755085E8,7.3305434E8,1.08830536E8,3.4612096E7,4.6926262E8,9.44907E8,1.4887091E8,3.2520102E8,0E0,1.3975202E8,9.1818355E8,5.0285466E8,5.464821E8,4.3091088E8,0E0,0E0,0E0,0E0,0E0,0E0,0E0,0E0,0E0,0E0,0E0,0E0,0E0,0E0,0E0,0E0,0E0,0E0,0E0,0E0,0E0,0E0,0E0,0E0,0E0,0E0,0E0,0E0,0E0,0E0],"parents":[2147483647,0,0,1,1,2,2,3,3,5,5,6,6,8,8,9,9,10,10,11,11,12,12,15,15,16,16,17,17,18,18,19,19,20,20,21,21,22,22,23,23,24,24,25,25,26,26,27,27,28,28,29,29,30,30,31,31,32,32,34,34,35,35,36,36,37,37,38,38],"right_children":[2,4,6,8,-1,10,12,-1,14,16,18,20,22,-1,-1,24,26,28,30,32,34,36,38,40,42,44,46,48,50,52,54,56,58,-1,60,62,64,66,68,-1,-1,-1,-1,-1,-1,-1,-1,-1,-1,-1,-1,-1,-1,-1,-1,-1,-1,-1,-1,-1,-1,-1,-1,-1,-1,-1,-1,-1,-1],"split_conditions":[-1.7343053E0,7.8801674E-1,3.9891127E-1,-1.424075E0,1.6683092E3,1.0469806E0,-6.729497E-1,3.7526633E2,1.0196761E0,1.5275882E-1,-1.1432928E0,9.9241775E-1,7.87588E-1,-3.2035156E3,-9.630418E2,-2.3633003E-1,-1.1064098E0,-4.8160326E-2,-9.9473053E-1,9.0363204E-1,-8.461683E-1,1.5275882E-1,9.1520166E-1,-1.118913E0,-3.422185E-1,-6.729497E-1,1.2664719E0,-1.092934E0,1.4237778E0,-8.4252185E-1,-7.1863556E-1,1.3833233E0,3.8839835E-1,-3.4433618E3,-4.1380918E-1,-7.351176E-1,-4.8160326E-2,-1.5053678E0,-7.835117E-1,-1.3073699E3,9.996074E1,2.1611165E3,-5.5235724E2,-2.967413E3,1.3343844E3,-1.7656996E3,7.154435E2,2.0971755E3,-7.84409E2,4.497766E3,1.0270756E3,-3.9844824E3,1.8428184E3,1.5751271E3,-6.8125995E2,2.7633044E3,4.60127E1,-2.751193E2,2.9025168E3,-1.163797E3,1.7434924E3,1.5553481E3,-5.596305E2,3.051051E3,8.986009E2,1.5935941E3,-1.4839072E3,-1.8545045E3,2.5330935E3],"split_indices":[5,0,2,4,0,4,3,0,4,4,0,5,4,0,0,4,2,1,0,4,0,4,5,2,2,3,5,2,3,2,2,6,5,0,4,5,1,6,6,0,0,0,0,0,0,0,0,0,0,0,0,0,0,0,0,0,0,0,0,0,0,0,0,0,0,0,0,0,0],"split_type":[0,0,0,0,0,0,0,0,0,0,0,0,0,0,0,0,0,0,0,0,0,0,0,0,0,0,0,0,0,0,0,0,0,0,0,0,0,0,0,0,0,0,0,0,0,0,0,0,0,0,0,0,0,0,0,0,0,0,0,0,0,0,0,0,0,0,0,0,0],"sum_hessian":[7E2,9E0,6.91E2,8E0,1E0,4.25E2,2.66E2,1E0,7E0,3.45E2,8E1,4.5E1,2.21E2,4E0,3E0,2.32E2,1.13E2,1E1,7E1,3.8E1,7E0,1.61E2,6E1,1.9E2,4.2E1,2.9E1,8.4E1,3E0,7E0,5E0,6.5E1,2.5E1,1.3E1,3E0,4E0,1.15E2,4.6E1,5.2E1,8E0,5.4E1,1.36E2,2.8E1,1.4E1,4E0,2.5E1,7.2E1,1.2E1,1E0,2E0,6E0,1E0,4E0,1E0,3.3E1,3.2E1,2.3E1,2E0,1E1,3E0,2E0,2E0,2.2E1,9.3E1,1.4E1,3.2E1,5E0,4.7E1,2E0,6E0],"tree_param":{"num_deleted":"0","num_feature":"7","num_nodes":"69","size_leaf_vector":"1"}},{"base_weights":[2.3416357E1,6.201033E1,-2.6930356E3,1.8648387E2,-2.5383127E3,-4.2895844E1,3.6063552E3,-1.4417512E3,-6.2486396E3,-2.4693098E2,2.1267166E3,1.398948E3,9.700054E3,1.1983181E3,-5.1507837E3,-3.4953958E3,7.161992E2,1.4925093E3,-6.395402E2,5.076413E3,3.804121E2,3.0284395E3,-5.8527606E2,1.2322304E4,-1.4000469E3,5.6415874E3,-7.52904E2,-3.4761155E3,2.143947E3,1.502752E3,-2.3845164E3,9.069923E2,-5.0976135E2,-2.6287654E3,-1.599369E2,-5.8641406E2,2.70383E3,5.302266E2,-1.6260349E3,-5.238078E2,1.9576627E3,4.6067954E3,3.4088397E2,-1.7345509E1,-6.126756E2,-6.454758E2,2.4383333E3,-7.231519E2,1.5070217E3,2.430282E3,-8.579354E2,-1.6359839E3,5.629515E2],"categories":[],"categories_nodes":[],"categories_segments":[],"categories_sizes":[],"default_left":[0,0,0,0,0,0,0,0,0,0,0,0,0,0,0,0,0,0,0,0,0,0,0,0,0,0,0,0,0,0,0,0,0,0,0,0,0,0,0,0,0,0,0,0,0,0,0,0,0,0,0,0,0],"id":4,"left_children":[1,3,-1,5,7,9,11,13,15,17,19,21,23,25,27,-1,29,31,33,35,37,-1,39,41,43,45,47,-1,49,-1,51,-1,-1,-1,-1,-1,-1,-1,-1,-1,-1,-1,-1,-1,-1,-1,-1,-1,-1,-1,-1,-1,-1],"loss_changes":[2.4405149E8,2.2671968E8,0E0,5.2416672E8,1.2118626E8,2.7808368E8,5.5138374E8,2.6076694E8,2.7174618E8,3.9295082E8,2.7622656E8,5.580527E8,3.3743142E8,1.4296446E8,5.4130125E8,0E0,6.5189612E7,5.2303942E8,4.007454E8,5.711575E8,2.911683E8,0E0,2.3424854E8,2.879648E8,2.467878E6,1.1436414E8,1.27006856E8,0E0,2.0201011E8,0E0,4.9461296E7,0E0,0E0,0E0,0E0,0E0,0E0,0E0,0E0,0E0,0E0,0E0,0E0,0E0,0E0,0E0,0E0,0E0,0E0,0E0,0E0,0E0,0E0],"parents":[2147483647,0,0,1,1,3,3,4,4,5,5,6,6,7,7,8,8,9,9,10,10,11,11,12,12,13,13,14,14,16,16,17,17,18,18,19,19,20,20,22,22,23,23,24,24,25,25,26,26,28,28,30,30],"right_children":[2,4,-1,6,8,10,12,14,16,18,20,22,24,26,28,-1,30,32,34,36,38,-1,40,42,44,46,48,-1,50,-1,52,-1,-1,-1,-1,-1,-1,-1,-1,-1,-1,-1,-1,-1,-1,-1,-1,-1,-1,-1,-1,-1,-1],"split_conditions":[1.688636E0,1.6099546E0,-2.6930356E3,1.4155638E0,1.2788382E0,1.5308281E0,1.4237778E0,5.5035585E-1,-3.0337533E-1,-1.1391902E0,-5.9484977E-1,-6.729497E-1,1.1425463E0,-9.872033E-1,-5.490437E-1,-3.4953958E3,-9.9473053E-1,5.3502154E-1,-1.0842373E0,-1.3162944E0,9.0363204E-1,3.0284395E3,1.1205807E0,5.420077E-1,-6.9760597E-1,-9.350441E-1,1.4237778E0,-3.4761155E3,1.6663581E0,1.502752E3,1.9376765E-1,9.069923E2,-5.0976135E2,-2.6287654E3,-1.599369E2,-5.8641406E2,2.70383E3,5.302266E2,-1.6260349E3,-5.238078E2,1.9576627E3,4.6067954E3,3.4088397E2,-1.7345509E1,-6.126756E2,-6.454758E2,2.4383333E3,-7.231519E2,1.5070217E3,2.430282E3,-8.579354E2,-1.6359839E3,5.629515E2],"split_indices":[4,2,0,2,6,0,3,5,5,6,5,3,4,4,0,0,0,4,6,5,4,0,5,6,0,6,3,0,2,0,0,0,0,0,0,0,0,0,0,0,0,0,0,0,0,0,0,0,0,0,0,0,0],"split_type":[0,0,0,0,0,0,0,0,0,0,0,0,0,0,0,0,0,0,0,0,0,0,0,0,0,0,0,0,0,0,0,0,0,0,0,0,0,0,0,0,0,0,0,0,0,0,0,0,0,0,0,0,0],"sum_hessian":[7E2,6.98E2,2E0,6.67E2,3.1E1,6.26E2,4.1E1,2.5E1,6E0,5.73E2,5.3E1,3.1E1,1E1,1.5E1,1E1,3E0,3E0,1.05E2,4.68E2,1.9E1,3.4E1,5E0,2.6E1,8E0,2E0,4E0,1.1E1,5E0,5E0,1E0,2E0,7.1E1,3.4E1,5E0,4.63E2,7E0,1.2E1,2.8E1,6E0,2.3E1,3E0,6E0,2E0,1E0,1E0,1E0,3E0,9E0,2E0,2E0,3E0,1E0,1E0],"tree_param":{"num_deleted":"0","num_feature":"7","num_nodes":"53","size_leaf_vector":"1"}},{"base_weights":[1.9707651E1,1.519024E3,-1.7044597E2,5.202449E2,7.0521875E3,-1.515013E3,3.0139453E2,-3.6589508E2,5.6964463E3,-1.7245801E3,1.0169396E4,-5.3149155E3,-6.8133997E2,2.217118E3,-1.4267284E2,-2.4226553E3,1.9977556E3,8.413348E3,-1.0342316E3,3.3154016E2,-9.108588E2,8.9015924E2,3.2096316E3,-7.2585596E3,5.466289E3,7.667343E3,-1.1325856E3,-5.949258E2,5.536142E3,3.498149E3,-4.3436435E2,-3.702045E2,-3.3764724E3,6.0103926E3,-9.522091E2,2.8414028E3,1.5110713E2,-9.30818E3,2.8015574E3,3.0627197E3,-1.0985834E3,-1.3353564E2,4.0654158E3,2.1306428E3,-2.2425225E3,4.2038916E3,-1.5346815E3,6.7031772E3,3.0104248E1,4.161542E3,-6.202992E2,-4.670201E3,-1.3510252E2,-1.6181913E3,2.2140434E2,2.163426E3,-1.0801354E3,-9.0803345E2,1.9640504E3,-2.6326773E2,-3.1993591E3,1.1214697E3,-1.417714E2,2.7091876E2,-7.6528125E2,-1.0314917E3,6.342469E2,-1.118681E3,1.6969626E3,-3.9850223E2,-2.0191233E3,-3.6039128E3,2.9622653E2,2.4229644E3,9.6666144E2,-3.0091382E3,2.4217605E3,1.935555E3,-9.70076E2,-2.4731714E3,-2.1219435E2,-1.9092618E2,4.8537833E2],"categories":[],"categories_nodes":[],"categories_segments":[],"categories_sizes":[],"default_left":[0,0,0,0,0,0,0,0,0,0,0,0,0,0,0,0,0,0,0,0,0,0,0,0,0,0,0,0,0,0,0,0,0,0,0,0,0,0,0,0,0,0,0,0,0,0,0,0,0,0,0,0,0,0,0,0,0,0,0,0,0,0,0,0,0,0,0,0,0,0,0,0,0,0,0,0,0,0,0,0,0,0,0],"id":5,"left_children":[1,3,5,7,9,11,13,15,17,19,21,23,25,27,29,31,33,35,-1,-1,-1,-1,-1,37,39,41,43,45,47,49,51,53,-1,55,57,-1,-1,59,61,-1,63,65,-1,67,69,-1,71,73,75,-1,77,79,81,-1,-1,-1,-1,-1,-1,-1,-1,-1,-1,-1,-1,-1,-1,-1,-1,-1,-1,-1,-1,-1,-1,-1,-1,-1,-1,-1,-1,-1,-1],"loss_changes":[2.0011434E8,4.3291744E8,3.95701E8,3.1398938E8,3.458462E8,5.0957466E8,3.9334442E8,2.9166614E8,2.7743472E8,1.8201394E7,2.568576E6,6.4736736E8,5.13503E8,8.1528557E8,4.0083027E8,5.759218E8,3.37163E8,6.217645E7,0E0,0E0,0E0,0E0,0E0,5.415629E8,1.6689411E8,3.2311446E8,4.6839117E8,6.804425E8,2.5682778E8,1.2048591E9,4.4176992E8,1.543015E8,0E0,1.6447894E8,2.842896E8,0E0,0E0,2.3077363E8,1.7100556E7,0E0,1.1024952E7,3.6981532E7,0E0,7.028824E8,3.849233E8,0E0,1.2275273E9,1.3173773E8,7.2826234E8,0E0,4.089753E8,3.1989914E8,2.884057E8,0E0,0E0,0E0,0E0,0E0,0E0,0E0,0E0,0E0,0E0,0E0,0E0,0E0,0E0,0E0,0E0,0E0,0E0,0E0,0E0,0E0,0E0,0E0,0E0,0E0,0E0,0E0,0E0,0E0,0E0],"parents":[2147483647,0,0,1,1,2,2,3,3,4,4,5,5,6,6,7,7,8,8,9,9,10,10,11,11,12,12,13,13,14,14,15,15,16,16,17,17,23,23,24,24,25,25,26,26,27,27,28,28,29,29,30,30,31,31,33,33,34,34,37,37,38,38,40,40,41,41,43,43,44,44,46,46,47,47,48,48,50,50,51,51,52,52],"right_children":[2,4,6,8,10,12,14,16,18,20,22,24,26,28,30,32,34,36,-1,-1,-1,-1,-1,38,40,42,44,46,48,50,52,54,-1,56,58,-1,-1,60,62,-1,64,66,-1,68,70,-1,72,74,76,-1,78,80,82,-1,-1,-1,-1,-1,-1,-1,-1,-1,-1,-1,-1,-1,-1,-1,-1,-1,-1,-1,-1,-1,-1,-1,-1,-1,-1,-1,-1,-1,-1],"split_conditions":[-1.3558137E0,1.2337036E0,-5.298532E-1,1.3101015E0,-4.8160326E-2,-1.1392307E0,-1.1064098E0,-1.5128145E0,1.570403E0,1.3822658E0,-1.6834675E0,1.3138311E0,-9.792587E-1,-1.3570651E0,-3.7285244E-1,-1.5537713E0,-2.5191918E-1,1.1714268E0,-1.0342316E3,3.3154016E2,-9.108588E2,8.9015924E2,3.2096316E3,1.5301657E0,1.4761076E0,-1.0622905E0,-8.820456E-1,-4.4111365E-1,1.3951128E0,-4.4710755E-2,-9.49633E-1,-1.1432928E0,-3.3764724E3,1.489408E0,1.3601878E0,2.8414028E3,1.5110713E2,-1.550418E0,-1.2069914E0,3.0627197E3,-6.9760597E-1,-1.1432928E0,4.0654158E3,-1.4502934E0,1.0851413E0,4.2038916E3,-2.3633003E-1,1.1558478E0,-1.033569E-1,4.161542E3,-1.1528276E0,8.490231E-1,1.1524748E0,-1.6181913E3,2.2140434E2,2.163426E3,-1.0801354E3,-9.0803345E2,1.9640504E3,-2.6326773E2,-3.1993591E3,1.1214697E3,-1.417714E2,2.7091876E2,-7.6528125E2,-1.0314917E3,6.342469E2,-1.118681E3,1.6969626E3,-3.9850223E2,-2.0191233E3,-3.6039128E3,2.9622653E2,2.4229644E3,9.6666144E2,-3.0091382E3,2.4217605E3,1.935555E3,-9.70076E2,-2.4731714E3,-2.1219435E2,-1.9092618E2,4.8537833E2],"split_indices":[4,0,4,6,1,2,2,4,6,0,4,6,2,2,4,4,0,5,0,0,0,0,0,5,6,4,6,4,4,2,2,0,0,5,5,0,0,6,2,0,0,0,0,6,0,0,4,1,0,0,6,4,2,0,0,0,0,0,0,0,0,0,0,0,0,0,0,0,0,0,0,0,0,0,0,0,0,0,0,0,0,0,0],"split_type":[0,0,0,0,0,0,0,0,0,0,0,0,0,0,0,0,0,0,0,0,0,0,0,0,0,0,0,0,0,0,0,0,0,0,0,0,0,0,0,0,0,0,0,0,0,0,0,0,0,0,0,0,0,0,0,0,0,0,0,0,0,0,0,0,0,0,0,0,0,0,0,0,0,0,0,0,0,0,0,0,0,0,0],"sum_hessian":[7E2,7.8E1,6.22E2,6.7E1,1.1E1,1.61E2,4.61E2,5.8E1,9E0,3E0,8E0,2.8E1,1.33E2,8.6E1,3.75E2,3.1E1,2.7E1,7E0,2E0,1E0,2E0,1E0,7E0,2.4E1,4E0,6E0,1.27E2,4.7E1,3.9E1,2.7E1,3.48E2,2.6E1,5E0,1.1E1,1.6E1,6E0,1E0,2E1,4E0,2E0,2E0,3E0,3E0,3.2E1,9.5E1,2E0,4.5E1,3.2E1,7E0,7E0,2E1,2.2E1,3.26E2,4E0,2.2E1,1E1,1E0,1.3E1,3E0,3E0,1.7E1,3E0,1E0,1E0,1E0,1E0,2E0,1.2E1,2E1,8E1,1.5E1,8E0,3.7E1,2.2E1,1E1,3E0,4E0,5E0,1.5E1,1.1E1,1.1E1,2.54E2,7.2E1],"tree_param":{"num_deleted":"0","num_feature":"7","num_nodes":"83","size_leaf_vector":"1"}},{"base_weights":[2.9763222E1,1.282712E2,-3.0163813E3,-2.5402231E1,2.350128E3,-5.667414E3,2.3313528E3,1.4533308E2,-3.7440857E3,-2.8857352E2,4.771924E3,-7.6026997E3,1.5552969E3,8.467881E3,-3.0441406E3,1.7947756E1,6.4918726E3,-8.94081E3,-3.6030545E2,3.7831824E3,-2.9890024E3,6.3922407E3,-2.3396648E3,-2.447972E3,-1.0934938E4,9.9315393E2,-5.5655273E2,2.3028107E2,3.2336318E3,-2.5798596E2,-1.0125598E3,2.3693105E2,-3.6280078E3,-6.676676E2,8.457915E3,2.0115541E3,-1.1598174E4,-5.4807617E3,2.6566528E3,3.9921206E3,-6.5181455E3,-9.6658856E2,7.71285E3,1.348972E3,-5.1728677E3,-1.0175908E3,3.4080206E2,-5.698301E2,-3.6372852E3,7.8674064E0,1.1617407E3,-2.8079208E2,-2.7515154E3,3.5415852E3,8.2484674E2,-3.946708E2,1.2998701E3,-3.9205574E3,-1.2903893E3,-2.8449746E3,-3.242549E1,-4.949754E2,1.7905433E3,1.9751143E3,-4.9737265E2,-4.8669482E2,-2.8125747E3,2.882357E3,3.7297913E2,-1.8675057E3,-3.0246213E2],"categories":[],"categories_nodes":[],"categories_segments":[],"categories_sizes":[],"default_left":[0,0,0,0,0,0,0,0,0,0,0,0,0,0,0,0,0,0,0,0,0,0,0,0,0,0,0,0,0,0,0,0,0,0,0,0,0,0,0,0,0,0,0,0,0,0,0,0,0,0,0,0,0,0,0,0,0,0,0,0,0,0,0,0,0,0,0,0,0,0,0],"id":6,"left_children":[1,3,5,7,9,11,13,15,17,19,21,23,25,27,29,31,33,35,37,-1,39,41,43,45,47,-1,-1,-1,-1,-1,-1,49,51,-1,53,55,57,59,61,63,65,-1,67,-1,69,-1,-1,-1,-1,-1,-1,-1,-1,-1,-1,-1,-1,-1,-1,-1,-1,-1,-1,-1,-1,-1,-1,-1,-1,-1,-1],"loss_changes":[2.1073565E8,2.322391E8,3.2510714E8,4.0498214E8,2.825545E8,2.214946E8,2.896724E8,4.9304163E8,4.891466E8,8.0402624E8,2.799853E8,1.793529E8,3.0086052E7,6.290419E7,7.1296E5,4.791032E8,2.2448963E8,3.434789E8,2.9262813E8,0E0,4.941315E8,2.6608602E8,1.2010242E8,2.4152892E7,5.219507E7,0E0,0E0,0E0,0E0,0E0,0E0,4.33472E8,4.9882662E8,0E0,1.5862362E8,2.8870448E7,4.0349056E7,1.4950344E8,1.8099878E8,1.1341325E8,1.6663296E8,0E0,1.964734E8,0E0,1.1251296E7,0E0,0E0,0E0,0E0,0E0,0E0,0E0,0E0,0E0,0E0,0E0,0E0,0E0,0E0,0E0,0E0,0E0,0E0,0E0,0E0,0E0,0E0,0E0,0E0,0E0,0E0],"parents":[2147483647,0,0,1,1,2,2,3,3,4,4,5,5,6,6,7,7,8,8,9,9,10,10,11,11,12,12,13,13,14,14,15,15,16,16,17,17,18,18,20,20,21,21,22,22,23,23,24,24,31,31,32,32,34,34,35,35,36,36,37,37,38,38,39,39,40,40,42,42,44,44],"right_children":[2,4,6,8,10,12,14,16,18,20,22,24,26,28,30,32,34,36,38,-1,40,42,44,46,48,-1,-1,-1,-1,-1,-1,50,52,-1,54,56,58,60,62,64,66,-1,68,-1,70,-1,-1,-1,-1,-1,-1,-1,-1,-1,-1,-1,-1,-1,-1,-1,-1,-1,-1,-1,-1,-1,-1,-1,-1,-1,-1],"split_conditions":[1.570403E0,1.367673E0,1.6359842E0,1.2773981E0,2.7562898E-1,9.1720545E-1,3.4232992E-1,1.2235701E0,-6.9760597E-1,-1.1432928E0,9.657012E-1,-3.3872184E-1,1.1558478E0,1.1558478E0,-1.26468E0,1.06271E0,-9.8928636E-1,-1.3899444E0,-9.793128E-1,3.7831824E3,-1.3421615E0,-1.5155089E0,-4.8160326E-2,-2.5191918E-1,1.5875436E0,9.9315393E2,-5.5655273E2,2.3028107E2,3.2336318E3,-2.5798596E2,-1.0125598E3,9.52884E-1,8.490231E-1,-6.676676E2,2.5959482E-2,-1.2918551E0,1.1524748E0,1.1558478E0,1.3138311E0,6.393906E-1,2.5959482E-2,-9.6658856E2,1.0388689E0,1.348972E3,1.1558478E0,-1.0175908E3,3.4080206E2,-5.698301E2,-3.6372852E3,7.8674064E0,1.1617407E3,-2.8079208E2,-2.7515154E3,3.5415852E3,8.2484674E2,-3.946708E2,1.2998701E3,-3.9205574E3,-1.2903893E3,-2.8449746E3,-3.242549E1,-4.949754E2,1.7905433E3,1.9751143E3,-4.9737265E2,-4.8669482E2,-2.8125747E3,2.882357E3,3.7297913E2,-1.8675057E3,-3.0246213E2],"split_indices":[6,6,6,6,4,2,0,6,0,0,5,4,1,1,2,6,5,4,5,0,4,2,1,0,6,0,0,0,0,0,0,6,4,0,3,0,2,1,6,5,3,0,2,0,1,0,0,0,0,0,0,0,0,0,0,0,0,0,0,0,0,0,0,0,0,0,0,0,0,0,0],"split_type":[0,0,0,0,0,0,0,0,0,0,0,0,0,0,0,0,0,0,0,0,0,0,0,0,0,0,0,0,0,0,0,0,0,0,0,0,0,0,0,0,0,0,0,0,0,0,0,0,0,0,0,0,0,0,0,0,0,0,0,0,0,0,0,0,0,0,0,0,0,0,0],"sum_hessian":[7E2,6.79E2,2.1E1,6.36E2,4.3E1,1.4E1,7E0,6.09E2,2.7E1,2.1E1,2.2E1,1.1E1,3E0,3E0,4E0,5.98E2,1.1E1,1E1,1.7E1,3E0,1.8E1,1.8E1,4E0,5E0,6E0,2E0,1E0,1E0,2E0,1E0,3E0,5.65E2,3.3E1,2E0,9E0,2E0,8E0,6E0,1.1E1,6E0,1.2E1,2E0,1.6E1,1E0,3E0,4E0,1E0,1E0,5E0,5.35E2,3E1,2.3E1,1E1,5E0,4E0,1E0,1E0,6E0,2E0,3E0,3E0,5E0,6E0,4E0,2E0,5E0,7E0,1.2E1,4E0,2E0,1E0],"tree_param":{"num_deleted":"0","num_feature":"7","num_nodes":"71","size_leaf_vector":"1"}},{"base_weights":[1.673168E1,1.6200918E3,-1.2228519E2,1.1847217E3,2.095117E3,-7.3336436E3,-7.72343E1,1.6566599E3,-1.1031653E3,-2.714975E3,-3.2772336E2,-1.6176924E2,3.245589E3,6.9620935E2,4.2628145E3,4.1704135E2,-5.6121155E2,4.724413E3,6.693278E2,2.8095066E3,-2.2530874E3,5.6600312E3,-2.2812532E3,-3.4196838E3,1.0173478E3,-1.9194998E3,9.320936E1,1.5583508E3,7.404141E1,-3.185996E2,1.4899233E3,-2.2785906E1,1.3391299E3,1.1029434E3,-1.1712765E3,2.0523062E3,6.911661E1,1.9769005E2,-1.224254E3,6.626827E2,-1.9357198E3,1.4089178E3,7.087987E1,2.059265E2,-9.0937787E2,1.3989485E3,-2.931849E2,2.0593067E1,-1.4116856E2,1.1904141E2,5.166084E2],"categories":[],"categories_nodes":[],"categories_segments":[],"categories_sizes":[],"default_left":[0,0,0,0,0,0,0,0,0,0,0,0,0,0,0,0,0,0,0,0,0,0,0,0,0,0,0,0,0,0,0,0,0,0,0,0,0,0,0,0,0,0,0,0,0,0,0,0,0,0,0],"id":7,"left_children":[1,3,5,7,-1,9,11,13,-1,-1,-1,15,17,19,21,23,25,27,29,31,33,35,37,39,41,43,45,-1,-1,47,49,-1,-1,-1,-1,-1,-1,-1,-1,-1,-1,-1,-1,-1,-1,-1,-1,-1,-1,-1,-1],"loss_changes":[1.5644688E8,1.2249544E8,2.0930483E8,1.2770224E8,0E0,3.2960432E7,1.811403E8,1.1968323E8,0E0,0E0,0E0,1.4542858E8,5.7795216E7,2.369415E8,1.3177725E8,5.9540416E8,3.3084682E8,1.976672E7,6.149511E6,1.0535158E8,1.7100515E8,6.895968E7,1.8562748E7,6.117037E8,6.3971085E8,3.526369E8,1.2373661E9,0E0,0E0,2.676864E5,3.31563E5,0E0,0E0,0E0,0E0,0E0,0E0,0E0,0E0,0E0,0E0,0E0,0E0,0E0,0E0,0E0,0E0,0E0,0E0,0E0,0E0],"parents":[2147483647,0,0,1,1,2,2,3,3,5,5,6,6,7,7,11,11,12,12,13,13,14,14,15,15,16,16,17,17,18,18,19,19,20,20,21,21,22,22,23,23,24,24,25,25,26,26,29,29,30,30],"right_children":[2,4,6,8,-1,10,12,14,-1,-1,-1,16,18,20,22,24,26,28,30,32,34,36,38,40,42,44,46,-1,-1,48,50,-1,-1,-1,-1,-1,-1,-1,-1,-1,-1,-1,-1,-1,-1,-1,-1,-1,-1,-1,-1],"split_conditions":[-1.4900204E0,-1.5037183E0,-1.462623E0,1.4553404E0,2.095117E3,9.36579E-1,1.5858327E0,7.221201E-1,-1.1031653E3,-2.714975E3,-3.2772336E2,2.5959482E-2,1.4237778E0,-6.209019E-1,1.4656463E0,-1.1432928E0,-3.999175E-1,-1.0944977E-1,1.0044188E0,-1.3570651E0,-1.7188653E0,1.0333283E0,7.8801674E-1,-8.615226E-1,-9.49087E-1,-5.8419675E-1,1.0808683E-2,1.5583508E3,7.404141E1,-9.9473053E-1,-8.461683E-1,-2.2785906E1,1.3391299E3,1.1029434E3,-1.1712765E3,2.0523062E3,6.911661E1,1.9769005E2,-1.224254E3,6.626827E2,-1.9357198E3,1.4089178E3,7.087987E1,2.059265E2,-9.0937787E2,1.3989485E3,-2.931849E2,2.0593067E1,-1.4116856E2,1.1904141E2,5.166084E2],"split_indices":[6,6,6,5,0,0,5,2,0,0,0,3,3,2,2,0,6,2,6,2,6,4,0,5,6,5,6,0,0,0,0,0,0,0,0,0,0,0,0,0,0,0,0,0,0,0,0,0,0,0,0],"split_type":[0,0,0,0,0,0,0,0,0,0,0,0,0,0,0,0,0,0,0,0,0,0,0,0,0,0,0,0,0,0,0,0,0,0,0,0,0,0,0,0,0,0,0,0,0,0,0,0,0,0,0],"sum_hessian":[7E2,5.5E1,6.45E2,5.2E1,3E0,3E0,6.42E2,4.8E1,4E0,2E0,1E0,6.27E2,1.5E1,3.6E1,1.2E1,2.56E2,3.71E2,9E0,6E0,2.1E1,1.5E1,1E1,2E0,3.4E1,2.22E2,1.2E2,2.51E2,8E0,1E0,3E0,3E0,8E0,1.3E1,3E0,1.2E1,8E0,2E0,1E0,1E0,1.2E1,2.2E1,3.8E1,1.84E2,3.6E1,8.4E1,4.7E1,2.04E2,1E0,2E0,1E0,2E0],"tree_param":{"num_deleted":"0","num_feature":"7","num_nodes":"51","size_leaf_vector":"1"}},{"base_weights":[1.6061508E1,4.6770844E1,-2.1433704E3,-3.3624712E3,9.6112366E1,-4.8571826E3,1.5134901E3,6.7898403E3,6.67849E1,6.641309E0,-5.469865E3,5.5975726E2,2.4956711E3,-1.6862102E2,9.495024E2,-6.8601147E3,-7.093761E2,-2.1010775E1,-6.196316E3,2.3907148E3,-1.5973329E3,-2.3077202E3,-5.296456E2,-2.2640714E2,3.26997E2,7.173479E2,-2.7035022E3,1.7344954E3,1.2880179E2,1.3579335E3,-1.1735024E3],"categories":[],"categories_nodes":[],"categories_segments":[],"categories_sizes":[],"default_left":[0,0,0,0,0,0,0,0,0,0,0,0,0,0,0,0,0,0,0,0,0,0,0,0,0,0,0,0,0,0,0],"id":8,"left_children":[1,3,-1,5,7,9,-1,11,13,-1,15,-1,-1,17,19,21,-1,23,25,27,29,-1,-1,-1,-1,-1,-1,-1,-1,-1,-1],"loss_changes":[1.5448278E8,1.1790699E8,0E0,1.5017128E8,1.3500051E8,2.7026336E7,0E0,7.065344E6,1.4312438E8,0E0,1.8315552E7,0E0,0E0,4.8389354E8,5.3604576E8,7.620128E6,0E0,4.3446576E8,3.358471E8,6.160513E8,7.688493E8,0E0,0E0,0E0,0E0,0E0,0E0,0E0,0E0,0E0,0E0],"parents":[2147483647,0,0,1,1,3,3,4,4,5,5,7,7,8,8,10,10,13,13,14,14,15,15,17,17,18,18,19,19,20,20],"right_children":[2,4,-1,6,8,10,-1,12,14,-1,16,-1,-1,18,20,22,-1,24,26,28,30,-1,-1,-1,-1,-1,-1,-1,-1,-1,-1],"split_conditions":[1.688636E0,-1.7343053E0,-2.1433704E3,7.8801674E-1,-1.7230933E0,-1.424075E0,1.5134901E3,-1.4404173E0,9.6506715E-1,6.641309E0,7.2486866E-1,5.5975726E2,2.4956711E3,9.0363204E-1,6.8530196E-1,1.9376765E-1,-7.093761E2,3.4299397E-1,-1.4230322E0,1.2244598E0,-8.138686E-1,-2.3077202E3,-5.296456E2,-2.2640714E2,3.26997E2,7.173479E2,-2.7035022E3,1.7344954E3,1.2880179E2,1.3579335E3,-1.1735024E3],"split_indices":[4,5,0,0,5,4,0,0,4,0,3,0,0,4,6,0,0,2,5,4,2,0,0,0,0,0,0,0,0,0,0],"split_type":[0,0,0,0,0,0,0,0,0,0,0,0,0,0,0,0,0,0,0,0,0,0,0,0,0,0,0,0,0,0,0],"sum_hessian":[7E2,6.98E2,2E0,9E0,6.89E2,8E0,1E0,2E0,6.87E2,1E0,7E0,1E0,1E0,5.43E2,1.44E2,4E0,3E0,5.31E2,1.2E1,9.2E1,5.2E1,3E0,1E0,3.2E2,2.11E2,3E0,9E0,3.3E1,5.9E1,1.4E1,3.8E1],"tree_param":{"num_deleted":"0","num_feature":"7","num_nodes":"31","size_leaf_vector":"1"}},{"base_weights":[9.884206E0,5.23403E1,-4.2068115E3,-6.510754E1,2.4103882E3,-9.276125E3,5.644315E3,8.640587E2,-3.1548486E2,-1.418414E3,3.558036E3,-4.875627E2,-3.2347659E3,4.261506E2,2.1137913E3,-1.1299465E3,2.077834E3,-5.662994E2,9.4798E2,-8.76517E2,5.9381436E3,8.915568E3,-2.111899E3,3.1337688E3,-1.2324143E3,3.59697E1,-2.053138E3,4.913609E3,-3.882596E2,4.762888E3,-6.3698364E3,6.7984956E3,-1.4322294E3,3.3115354E3,6.3605274E1,-1.259309E3,-5.3891636E1,5.5438477E2,1.8854684E3,-1.0448466E3,4.0038397E2,-6.495036E1,1.6276372E3,1.3910776E3,-8.0095233E2,-1.6374528E3,2.2565046E3,-4.697229E2,6.1136316E2,-1.6374815E2,1.7801392E3,-3.7855313E2,-2.14172E3,-3.547799E2,2.3610137E3],"categories":[],"categories_nodes":[],"categories_segments":[],"categories_sizes":[],"default_left":[0,0,0,0,0,0,0,0,0,0,0,0,0,0,0,0,0,0,0,0,0,0,0,0,0,0,0,0,0,0,0,0,0,0,0,0,0,0,0,0,0,0,0,0,0,0,0,0,0,0,0,0,0,0,0],"id":9,"left_children":[1,3,5,7,9,11,13,15,17,-1,19,-1,-1,-1,-1,21,23,25,27,29,31,33,35,37,39,41,43,45,47,49,51,53,-1,-1,-1,-1,-1,-1,-1,-1,-1,-1,-1,-1,-1,-1,-1,-1,-1,-1,-1,-1,-1,-1,-1],"loss_changes":[1.2571632E8,1.9263554E8,4.0192653E8,1.5451435E8,2.8717203E8,4.010384E7,7.752176E6,3.436065E8,1.6627312E8,0E0,3.112916E8,0E0,0E0,0E0,0E0,5.5149664E8,3.114579E8,3.9139725E8,4.629234E8,3.711084E8,2.0756634E8,9.004275E7,2.0076106E8,2.5985504E8,1.3173909E8,4.2570947E8,5.3222845E8,6.361628E8,1.9173533E8,4.0534944E7,1.4566928E7,1.6324563E8,0E0,0E0,0E0,0E0,0E0,0E0,0E0,0E0,0E0,0E0,0E0,0E0,0E0,0E0,0E0,0E0,0E0,0E0,0E0,0E0,0E0,0E0,0E0],"parents":[2147483647,0,0,1,1,2,2,3,3,4,4,5,5,6,6,7,7,8,8,10,10,15,15,16,16,17,17,18,18,19,19,20,20,21,21,22,22,23,23,24,24,25,25,26,26,27,27,28,28,29,29,30,30,31,31],"right_children":[2,4,6,8,10,12,14,16,18,-1,20,-1,-1,-1,-1,22,24,26,28,30,32,34,36,38,40,42,44,46,48,50,52,54,-1,-1,-1,-1,-1,-1,-1,-1,-1,-1,-1,-1,-1,-1,-1,-1,-1,-1,-1,-1,-1,-1,-1],"split_conditions":[1.6749836E0,1.5452874E0,7.7425355E-1,-6.729497E-1,-1.2918551E0,1.1558478E0,1.9376765E-1,-6.4309514E-1,1.1351143E0,-1.418414E3,-6.729497E-1,-4.875627E2,-3.2347659E3,4.261506E2,2.1137913E3,-1.58386E0,9.0363204E-1,3.6633676E-1,1.2779951E0,1.6135486E0,1.6663581E0,1.2337036E0,-2.7536738E-1,6.838534E-1,4.27634E-1,2.9828036E-1,-1.2918551E0,-1.2218271E0,7.669581E-1,-1.0277029E0,1.634027E0,-1.3225355E0,-1.4322294E3,3.3115354E3,6.3605274E1,-1.259309E3,-5.3891636E1,5.5438477E2,1.8854684E3,-1.0448466E3,4.0038397E2,-6.495036E1,1.6276372E3,1.3910776E3,-8.0095233E2,-1.6374528E3,2.2565046E3,-4.697229E2,6.1136316E2,-1.6374815E2,1.7801392E3,-3.7855313E2,-2.14172E3,-3.547799E2,2.3610137E3],"split_indices":[4,4,5,3,0,1,0,2,5,0,3,0,0,0,0,2,4,5,5,4,2,0,5,6,2,5,0,6,2,5,4,5,0,0,0,0,0,0,0,0,0,0,0,0,0,0,0,0,0,0,0,0,0,0,0],"split_type":[0,0,0,0,0,0,0,0,0,0,0,0,0,0,0,0,0,0,0,0,0,0,0,0,0,0,0,0,0,0,0,0,0,0,0,0,0,0,0,0,0,0,0,0,0,0,0,0,0,0,0,0,0,0,0],"sum_hessian":[7E2,6.94E2,6E0,6.62E2,3.2E1,4E0,2E0,1.4E2,5.22E2,4E0,2.8E1,1E0,3E0,1E0,1E0,5.3E1,8.7E1,4.36E2,8.6E1,1E1,1.8E1,4E0,4.9E1,6.6E1,2.1E1,3.11E2,1.25E2,2.1E1,6.5E1,5E0,5E0,1.7E1,1E0,3E0,1E0,2.3E1,2.6E1,4.8E1,1.8E1,1.1E1,1E1,2.98E2,1.3E1,1E1,1.15E2,4E0,1.7E1,4.4E1,2.1E1,1E0,4E0,1E0,4E0,2E0,1.5E1],"tree_param":{"num_deleted":"0","num_feature":"7","num_nodes":"55","size_leaf_vector":"1"}},{"base_weights":[1.2397415E1,9.942137E1,-1.9373524E3,-3.5702698E1,2.0288218E3,-1.1128911E2,-5.57835E3,3.6161487E2,-6.0844086E2,3.1712783E3,-2.7664297E3,-1.2762885E3,1.5477091E3,-6.704249E3,6.8321136E2,1.0907595E2,4.374322E3,-9.223833E3,-3.6670993E2,7.639849E3,1.1587571E3,-7.982057E3,3.002484E3,2.3856445E3,-3.8234863E3,-8.227052E3,-8.231949E2,5.1598083E2,-1.3700665E3,-6.388792E1,2.9119685E3,-3.6223357E3,-1.3981895E3,1.6495996E2,-2.7512524E3,3.2656172E3,2.6615952E3,-3.1754648E3,3.2614927E3,-4.7429327E2,-2.756125E3,1.411637E3,8.960508E1,-2.441839E3,4.401779E3,-2.1060007E3,-9.940484E2,-2.6698984E3,-7.296009E2,-2.534591E2,4.0695837E2,1.8318386E3,-8.187628E2,7.437235E2,-2.8100405E3,1.9026826E2,-8.1945355E2,-2.9595413E1,2.7037146E3,9.939834E2,-1.358364E3,4.1908596E1,1.2783079E3,-1.6718971E3,1.0431748E3,-1.0363267E3,2.0721956E3,-9.4985864E2,-1.4896906E2,2.734464E3,-7.004736E1,-1.0884283E3,5.66553E2],"categories":[],"categories_nodes":[],"categories_segments":[],"categories_sizes":[],"default_left":[0,0,0,0,0,0,0,0,0,0,0,0,0,0,0,0,0,0,0,0,0,0,0,0,0,0,0,0,0,0,0,0,0,0,0,0,0,0,0,0,0,0,0,0,0,0,0,0,0,0,0,0,0,0,0,0,0,0,0,0,0,0,0,0,0,0,0,0,0,0,0,0,0],"id":10,"left_children":[1,3,5,7,9,11,13,15,17,19,21,23,-1,25,-1,27,29,31,33,35,37,39,41,43,45,47,-1,49,51,53,-1,-1,55,57,59,61,-1,63,65,-1,-1,-1,-1,67,69,-1,71,-1,-1,-1,-1,-1,-1,-1,-1,-1,-1,-1,-1,-1,-1,-1,-1,-1,-1,-1,-1,-1,-1,-1,-1,-1,-1],"loss_changes":[1.19134744E8,1.752685E8,1.9883994E8,1.433546E8,2.4982125E8,1.355227E8,1.0371558E8,3.7649453E8,5.3393E8,3.1489862E8,2.9476256E8,1.770195E8,0E0,3.1701408E7,0E0,2.1196341E8,5.2126336E8,1.3927315E8,3.1993677E8,3.03136E7,2.4731355E8,2.404272E7,2.161704E7,8.861129E7,9.250954E7,1.742816E6,0E0,3.1684973E8,7.889173E8,3.3076195E8,0E0,0E0,9.862E6,4.8367117E8,5.1062502E8,1.1851032E7,0E0,1.6292914E8,4.6459178E8,0E0,0E0,0E0,0E0,2.655E6,1.3320722E8,0E0,6.000123E7,0E0,0E0,0E0,0E0,0E0,0E0,0E0,0E0,0E0,0E0,0E0,0E0,0E0,0E0,0E0,0E0,0E0,0E0,0E0,0E0,0E0,0E0,0E0,0E0,0E0,0E0],"parents":[2147483647,0,0,1,1,2,2,3,3,4,4,5,5,6,6,7,7,8,8,9,9,10,10,11,11,13,13,15,15,16,16,17,17,18,18,19,19,20,20,21,21,22,22,23,23,24,24,25,25,27,27,28,28,29,29,32,32,33,33,34,34,35,35,37,37,38,38,43,43,44,44,46,46],"right_children":[2,4,6,8,10,12,14,16,18,20,22,24,-1,26,-1,28,30,32,34,36,38,40,42,44,46,48,-1,50,52,54,-1,-1,56,58,60,62,-1,64,66,-1,-1,-1,-1,68,70,-1,72,-1,-1,-1,-1,-1,-1,-1,-1,-1,-1,-1,-1,-1,-1,-1,-1,-1,-1,-1,-1,-1,-1,-1,-1,-1,-1],"split_conditions":[1.6133235E0,1.4155638E0,6.393906E-1,3.780208E-1,1.0044188E0,5.161261E-1,1.3822658E0,2.4832451E-1,4.1897753E-1,1.4592905E0,1.367673E0,-5.484381E-1,1.5477091E3,-5.490437E-1,6.8321136E2,1.0851413E0,-6.3674753E-3,3.4232992E-1,8.091913E-1,-1.0450444E0,-6.1176664E-1,-8.461683E-1,7.125007E-1,-1.2918551E0,-6.9253757E-3,1.4644312E0,-8.231949E2,-1.0554645E0,-1.4104228E0,-5.031977E-1,2.9119685E3,-3.6223357E3,4.908922E-1,7.351443E-1,-6.729497E-1,-1.033569E-1,2.6615952E3,1.4237778E0,-1.2783571E0,-4.7429327E2,-2.756125E3,1.411637E3,8.960508E1,-1.4404173E0,4.6506557E-1,-2.1060007E3,1.6999085E0,-2.6698984E3,-7.296009E2,-2.534591E2,4.0695837E2,1.8318386E3,-8.187628E2,7.437235E2,-2.8100405E3,1.9026826E2,-8.1945355E2,-2.9595413E1,2.7037146E3,9.939834E2,-1.358364E3,4.1908596E1,1.2783079E3,-1.6718971E3,1.0431748E3,-1.0363267E3,2.0721956E3,-9.4985864E2,-1.4896906E2,2.734464E3,-7.004736E1,-1.0884283E3,5.66553E2],"split_indices":[2,2,5,4,6,5,0,4,4,2,6,5,0,0,0,0,2,0,2,6,4,0,4,0,5,5,0,4,4,2,0,0,0,2,3,0,0,3,6,0,0,0,0,0,6,0,2,0,0,0,0,0,0,0,0,0,0,0,0,0,0,0,0,0,0,0,0,0,0,0,0,0,0],"split_type":[0,0,0,0,0,0,0,0,0,0,0,0,0,0,0,0,0,0,0,0,0,0,0,0,0,0,0,0,0,0,0,0,0,0,0,0,0,0,0,0,0,0,0,0,0,0,0,0,0,0,0,0,0,0,0,0,0,0,0,0,0,0,0,0,0,0,0,0,0,0,0,0,0],"sum_hessian":[7E2,6.71E2,2.9E1,6.28E2,4.3E1,2E1,9E0,3.71E2,2.57E2,3.5E1,8E0,1.7E1,3E0,8E0,1E0,3.5E2,2.1E1,6E0,2.51E2,1E1,2.5E1,4E0,4E0,7E0,1E1,5E0,3E0,2.75E2,7.5E1,1.2E1,9E0,4E0,2E0,2.06E2,4.5E1,3E0,7E0,8E0,1.7E1,1E0,3E0,2E0,2E0,2E0,5E0,4E0,6E0,4E0,1E0,1.05E2,1.7E2,1.1E1,6.4E1,1E1,2E0,1E0,1E0,2.01E2,5E0,1E1,3.5E1,1E0,2E0,6E0,2E0,6E0,1.1E1,1E0,1E0,2E0,3E0,3E0,3E0],"tree_param":{"num_deleted":"0","num_feature":"7","num_nodes":"73","size_leaf_vector":"1"}},{"base_weights":[8.216217E0,-1.2391806E2,1.5032758E3,3.6565988E2,-5.24885E2,-1.8350525E3,1.8915862E3,9.083931E2,-1.6129366E3,-1.7825405E3,1.6637364E2,4.1126997E3,2.862166E2,4.4263034E2,4.868341E3,-3.7684988E3,7.3372424E2,-2.324264E3,2.7172659E3,-5.159873E2,2.1083296E3,6.0462616E2,6.324702E3,1.246037E3,-4.240648E3,7.136873E2,-3.636422E3,-4.523673E3,6.9729272E3,5.4306577E3,-5.224612E3,4.769925E3,-1.1342635E3,-3.4406918E2,-3.4045889E3,4.665033E3,-3.390557E3,5.111076E3,-7.162668E2,6.108871E3,7.5797186E2,3.9891152E3,-3.577686E3,8.28303E3,1.1431058E3,3.037929E2,2.699042E3,-1.7584785E3,-1.997508E2,8.993558E1,1.1808068E3,2.611883E3,-2.0016088E3,-2.9640002E2,-1.9654366E3,2.9670483E3,-4.4469394E2,-4.0124884E2,2.237121E3,-8.1965265E2,-2.558365E3,2.0101946E3,-1.8909885E3,-1.3781927E3,1.0430367E3,-7.6149347E2,1.0885515E3,-4.9569482E2,-2.07399E3,-1.4567696E2,2.3834614E3,-3.069893E2,2.5302266E3,-1.2292818E1,-6.9835785E2,-1.13164314E2,2.328548E3,1.8992612E3,-1.2138662E2,-4.206524E1,1.8266509E3,1.983332E2,-1.9871761E3,3.010105E3,2.560838E2,-4.9385757E2,1.8450446E3,4.511573E2,-1.511175E3],"categories":[],"categories_nodes":[],"categories_segments":[],"categories_sizes":[],"default_left":[0,0,0,0,0,0,0,0,0,0,0,0,0,0,0,0,0,0,0,0,0,0,0,0,0,0,0,0,0,0,0,0,0,0,0,0,0,0,0,0,0,0,0,0,0,0,0,0,0,0,0,0,0,0,0,0,0,0,0,0,0,0,0,0,0,0,0,0,0,0,0,0,0,0,0,0,0,0,0,0,0,0,0,0,0,0,0,0,0],"id":11,"left_children":[1,3,5,7,9,-1,11,13,15,17,19,21,23,25,27,29,31,33,35,37,39,41,43,45,47,49,51,53,55,57,59,61,63,65,67,69,-1,71,73,75,77,79,81,83,85,87,-1,-1,-1,-1,-1,-1,-1,-1,-1,-1,-1,-1,-1,-1,-1,-1,-1,-1,-1,-1,-1,-1,-1,-1,-1,-1,-1,-1,-1,-1,-1,-1,-1,-1,-1,-1,-1,-1,-1,-1,-1,-1,-1],"loss_changes":[1.3866786E8,1.2680837E8,1.8023186E8,3.1395562E8,3.0892125E8,0E0,1.9493682E8,4.2021187E8,3.2144256E8,3.1345955E8,3.058643E8,1.7465286E8,1.4866822E8,2.303603E8,5.059346E8,4.7040854E8,2.391371E8,2.4056429E8,4.3500736E8,1.9637541E8,3.194994E8,1.558217E8,1.3259334E8,2.017541E8,3.0864624E7,2.5756387E8,5.451671E8,2.937504E7,5.079787E8,7.854915E7,2.1546291E8,2.5602947E8,3.6693642E8,3.6659862E8,4.37397E8,2.2346966E8,0E0,1.3093813E8,1.8056134E8,1.6374605E8,3.0059648E8,5.287643E7,6.894099E7,1.2149843E8,7.9954984E7,1.7422482E8,0E0,0E0,0E0,0E0,0E0,0E0,0E0,0E0,0E0,0E0,0E0,0E0,0E0,0E0,0E0,0E0,0E0,0E0,0E0,0E0,0E0,0E0,0E0,0E0,0E0,0E0,0E0,0E0,0E0,0E0,0E0,0E0,0E0,0E0,0E0,0E0,0E0,0E0,0E0,0E0,0E0,0E0,0E0],"parents":[2147483647,0,0,1,1,2,2,3,3,4,4,6,6,7,7,8,8,9,9,10,10,11,11,12,12,13,13,14,14,15,15,16,16,17,17,18,18,19,19,20,20,21,21,22,22,23,23,24,24,25,25,26,26,27,27,28,28,29,29,30,30,31,31,32,32,33,33,34,34,35,35,37,37,38,38,39,39,40,40,41,41,42,42,43,43,44,44,45,45],"right_children":[2,4,6,8,10,-1,12,14,16,18,20,22,24,26,28,30,32,34,36,38,40,42,44,46,48,50,52,54,56,58,60,62,64,66,68,70,-1,72,74,76,78,80,82,84,86,88,-1,-1,-1,-1,-1,-1,-1,-1,-1,-1,-1,-1,-1,-1,-1,-1,-1,-1,-1,-1,-1,-1,-1,-1,-1,-1,-1,-1,-1,-1,-1,-1,-1,-1,-1,-1,-1,-1,-1,-1,-1,-1,-1],"split_conditions":[1.5308281E0,-2.1395604E-1,-1.6730019E0,9.36579E-1,5.324528E-1,-1.8350525E3,-1.7585915E-1,-3.7219152E-1,-1.7489496E-1,1.1293936E0,6.394545E-1,2.2102003E-1,9.0363204E-1,-4.4405046E-1,-1.2252988E0,-1.2670742E0,-8.817527E-1,-4.6159202E-1,4.5646092E-1,5.438447E-1,7.8801674E-1,-7.278107E-1,1.3387151E0,8.2171863E-1,1.2654165E0,1.4292433E0,-6.283204E-1,-1.144204E0,3.2493582E-1,1.0851413E0,7.2486866E-1,1.1903291E0,7.38467E-1,-9.189421E-1,5.3822243E-1,6.646392E-2,-3.390557E3,-4.0048143E-1,-1.033569E-1,-1.3548656E0,9.38322E-1,-1.5037183E0,-4.8160326E-2,5.167891E-1,-1.0275351E0,2.7562898E-1,2.699042E3,-1.7584785E3,-1.997508E2,8.993558E1,1.1808068E3,2.611883E3,-2.0016088E3,-2.9640002E2,-1.9654366E3,2.9670483E3,-4.4469394E2,-4.0124884E2,2.237121E3,-8.1965265E2,-2.558365E3,2.0101946E3,-1.8909885E3,-1.3781927E3,1.0430367E3,-7.6149347E2,1.0885515E3,-4.9569482E2,-2.07399E3,-1.4567696E2,2.3834614E3,-3.069893E2,2.5302266E3,-1.2292818E1,-6.9835785E2,-1.13164314E2,2.328548E3,1.8992612E3,-1.2138662E2,-4.206524E1,1.8266509E3,1.983332E2,-1.9871761E3,3.010105E3,2.560838E2,-4.9385757E2,1.8450446E3,4.511573E2,-1.511175E3],"split_indices":[0,2,5,0,2,0,5,2,4,5,0,4,4,2,6,4,5,4,2,2,0,4,6,4,4,4,6,4,5,0,3,4,5,4,6,2,0,0,0,6,2,6,1,2,2,4,0,0,0,0,0,0,0,0,0,0,0,0,0,0,0,0,0,0,0,0,0,0,0,0,0,0,0,0,0,0,0,0,0,0,0,0,0,0,0,0,0,0,0],"split_type":[0,0,0,0,0,0,0,0,0,0,0,0,0,0,0,0,0,0,0,0,0,0,0,0,0,0,0,0,0,0,0,0,0,0,0,0,0,0,0,0,0,0,0,0,0,0,0,0,0,0,0,0,0,0,0,0,0,0,0,0,0,0,0,0,0,0,0,0,0,0,0,0,0,0,0,0,0,0,0,0,0,0,0,0,0,0,0,0,0],"sum_hessian":[7E2,6.44E2,5.6E1,2.9E2,3.54E2,2E0,5.4E1,2.28E2,6.2E1,1.25E2,2.29E2,2.2E1,3.2E1,2.05E2,2.3E1,3.2E1,3E1,1.12E2,1.3E1,1.7E2,5.9E1,9E0,1.3E1,2.7E1,5E0,1.93E2,1.2E1,4E0,1.9E1,4E0,2.8E1,9E0,2.1E1,4E1,7.2E1,1.2E1,1E0,5E0,1.65E2,1.4E1,4.5E1,5E0,4E0,9E0,4E0,2.5E1,2E0,3E0,2E0,1.72E2,2.1E1,2E0,1E1,2E0,2E0,1.4E1,5E0,1E0,3E0,1.7E1,1.1E1,8E0,1E0,1.2E1,9E0,2.6E1,1.4E1,4.9E1,2.3E1,5E0,7E0,2E0,3E0,1.17E2,4.8E1,3E0,1.1E1,7E0,3.8E1,2E0,3E0,2E0,2E0,7E0,2E0,3E0,1E0,2.1E1,4E0],"tree_param":{"num_deleted":"0","num_feature":"7","num_nodes":"89","size_leaf_vector":"1"}},{"base_weights":[1.2816635E1,1.4599026E3,-1.12647194E2,2.3941777E3,-2.1123093E2,-4.028888E3,-5.7225853E1,1.3243744E3,4.705151E3,-1.6295743E3,2.8582522E3,1.7611272E3,-6.000105E3,-1.339771E2,2.4503003E3,-2.3369531E3,2.0962954E3,5.3348223E3,-2.3873439E2,1.7187375E3,-2.564419E3,1.2312378E3,-6.925486E2,-8.1891357E3,1.3984664E3,-4.9023373E1,-2.8186172E3,3.289977E3,-9.3739044E2,5.7667706E2,-3.8823198E3,-7.2760547E2,2.9696548E3,1.8674792E3,2.4434272E3,-3.7286738E3,-3.9063345E2,-2.71613E3,-4.5020303E2,-9.8057465E1,4.8380396E3,-6.2918916E3,5.755459E3,-9.568594E2,3.9200125E3,-1.5768617E3,3.5900684E1,4.815469E2,-1.0786259E3,1.0771401E3,-3.3728714E2,1.0869833E3,-1.6441846E2,-3.1928907E1,-1.424519E3,6.169086E2,-6.3846655E2,1.0218833E3,-4.9067818E1,1.9075873E3,-4.1473245E2,-2.3280105E3,5.033934E2,6.892403E2,2.0730264E3,-8.95251E1,-3.4106165E2,1.6262833E2,1.3193978E3],"categories":[],"categories_nodes":[],"categories_segments":[],"categories_sizes":[],"default_left":[0,0,0,0,0,0,0,0,0,0,0,0,0,0,0,0,0,0,0,0,0,0,0,0,0,0,0,0,0,0,0,0,0,0,0,0,0,0,0,0,0,0,0,0,0,0,0,0,0,0,0,0,0,0,0,0,0,0,0,0,0,0,0,0,0,0,0,0,0],"id":12,"left_children":[1,3,5,7,9,11,13,15,17,19,21,-1,23,25,27,29,31,33,-1,-1,35,-1,-1,37,-1,39,41,43,-1,-1,45,47,49,-1,51,53,55,-1,-1,57,59,61,63,65,67,-1,-1,-1,-1,-1,-1,-1,-1,-1,-1,-1,-1,-1,-1,-1,-1,-1,-1,-1,-1,-1,-1,-1,-1],"loss_changes":[1.27435864E8,8.7938456E7,1.3997944E8,8.277094E7,9.6082936E7,2.1084637E8,1.2311505E8,7.83816E7,4.2346944E7,1.1788048E8,5.453416E7,0E0,2.2488371E8,1.4126533E8,9.92217E7,4.037302E7,5.6418904E7,1.0526368E7,0E0,0E0,3.397523E7,0E0,0E0,2.689456E7,0E0,1.447333E8,6.02035E8,4.923709E7,0E0,0E0,2.2622108E7,4.5910764E7,4.7243424E7,0E0,1.6103814E7,3.2737784E7,2.9887616E7,0E0,0E0,1.375929E8,6.554301E7,1.7683392E8,8.08048E6,1.6322E4,2.1834528E7,0E0,0E0,0E0,0E0,0E0,0E0,0E0,0E0,0E0,0E0,0E0,0E0,0E0,0E0,0E0,0E0,0E0,0E0,0E0,0E0,0E0,0E0,0E0,0E0],"parents":[2147483647,0,0,1,1,2,2,3,3,4,4,5,5,6,6,7,7,8,8,9,9,10,10,12,12,13,13,14,14,15,15,16,16,17,17,20,20,23,23,25,25,26,26,27,27,30,30,31,31,32,32,34,34,35,35,36,36,39,39,40,40,41,41,42,42,43,43,44,44],"right_children":[2,4,6,8,10,12,14,16,18,20,22,-1,24,26,28,30,32,34,-1,-1,36,-1,-1,38,-1,40,42,44,-1,-1,46,48,50,-1,52,54,56,-1,-1,58,60,62,64,66,68,-1,-1,-1,-1,-1,-1,-1,-1,-1,-1,-1,-1,-1,-1,-1,-1,-1,-1,-1,-1,-1,-1,-1,-1],"split_conditions":[-1.4900204E0,5.161261E-1,-1.4376978E0,-4.143416E-1,-1.5608151E0,-1.58386E0,1.5814365E0,-1.0554645E0,1.0851413E0,-1.4582056E0,1.4237778E0,1.7611272E3,1.0196761E0,1.4908444E0,1.1730356E0,-6.9760597E-1,-8.461683E-1,7.8801674E-1,-2.3873439E2,1.7187375E3,1.3303921E0,1.2312378E3,-6.925486E2,-7.989349E-2,1.3984664E3,1.4706926E0,7.2486866E-1,-1.314857E0,-9.3739044E2,5.7667706E2,9.36579E-1,-1.270389E0,-8.864489E-1,1.8674792E3,-4.8160326E-2,-1.7188653E0,1.4043317E0,-2.71613E3,-4.5020303E2,-1.3779913E0,5.4346263E-1,1.3119259E0,1.224681E0,-6.9760597E-1,-8.461683E-1,-1.5768617E3,3.5900684E1,4.815469E2,-1.0786259E3,1.0771401E3,-3.3728714E2,1.0869833E3,-1.6441846E2,-3.1928907E1,-1.424519E3,6.169086E2,-6.3846655E2,1.0218833E3,-4.9067818E1,1.9075873E3,-4.1473245E2,-2.3280105E3,5.033934E2,6.892403E2,2.0730264E3,-8.95251E1,-3.4106165E2,1.6262833E2,1.3193978E3],"split_indices":[6,5,6,5,6,2,5,4,0,4,3,0,4,5,2,0,0,0,0,0,5,0,0,2,0,5,3,4,0,0,0,5,5,0,1,6,5,0,0,6,2,2,2,0,0,0,0,0,0,0,0,0,0,0,0,0,0,0,0,0,0,0,0,0,0,0,0,0,0],"split_type":[0,0,0,0,0,0,0,0,0,0,0,0,0,0,0,0,0,0,0,0,0,0,0,0,0,0,0,0,0,0,0,0,0,0,0,0,0,0,0,0,0,0,0,0,0,0,0,0,0,0,0,0,0,0,0,0,0,0,0,0,0,0,0,0,0,0,0,0,0],"sum_hessian":[7E2,5.5E1,6.45E2,3.5E1,2E1,8E0,6.37E2,2.5E1,1E1,1.4E1,6E0,1E0,7E0,6.19E2,1.8E1,4E0,2.1E1,9E0,1E0,1E0,1.3E1,5E0,1E0,6E0,1E0,6.01E2,1.8E1,1.6E1,2E0,1E0,3E0,5E0,1.6E1,6E0,3E0,8E0,5E0,5E0,1E0,5.96E2,5E0,1.3E1,5E0,2E0,1.4E1,2E0,1E0,3E0,2E0,1.4E1,2E0,2E0,1E0,2E0,6E0,2E0,3E0,1E1,5.86E2,4E0,1E0,1.1E1,2E0,2E0,3E0,1E0,1E0,2E0,1.2E1],"tree_param":{"num_deleted":"0","num_feature":"7","num_nodes":"69","size_leaf_vector":"1"}},{"base_weights":[1.755933E1,1.1055171E3,-1.20428185E2,-4.835162E3,1.4868221E3,-2.5864683E3,-2.5853554E1,-1.4219206E2,-2.3749236E3,-8.153535E2,2.875679E3,1.4488242E3,-6.4062217E3,5.7551426E3,-8.4008125E1,-5.6944046E1,-7.042383E0,-3.2616865E3,8.608326E2,-1.0148537E3,3.8238276E3,-3.3418132E3,4.2618696E3,-5.51206E2,-2.5382964E3,-4.252767E2,2.6855017E3,4.3172418E2,-5.067154E2,1.4214429E3,-4.980668E3,2.490405E3,-2.055696E3,6.236897E2,-1.5138054E3,4.923516E3,-9.154446E2,-1.3704347E1,-1.2463278E3,5.9997573E3,-6.345286E2,-2.169044E2,2.5529884E1,-1.4565674E2,3.840526E3,-2.6356143E3,1.9065363E2,6.261094E1,5.2683655E2,-2.4658733E2,-1.8154346E3,-1.2777407E3,1.0473582E3,4.469801E2,-8.6848706E2,9.326479E2,-4.4674725E2,6.696665E1,1.8855405E3,-1.9256143E3,1.101078E3,2.0577302E3,2.5545587E2,3.7994708E2,-6.65485E2,2.4489622E2,-5.2418353E2,4.404313E2,2.261558E3,-1.8253783E3,-3.7392755E2,1.7231014E3,-2.0039852E1],"categories":[],"categories_nodes":[],"categories_segments":[],"categories_sizes":[],"default_left":[0,0,0,0,0,0,0,0,0,0,0,0,0,0,0,0,0,0,0,0,0,0,0,0,0,0,0,0,0,0,0,0,0,0,0,0,0,0,0,0,0,0,0,0,0,0,0,0,0,0,0,0,0,0,0,0,0,0,0,0,0,0,0,0,0,0,0,0,0,0,0,0,0],"id":13,"left_children":[1,3,5,7,9,11,13,15,-1,17,19,21,23,25,27,-1,-1,29,31,33,35,37,39,-1,-1,41,-1,43,45,47,49,51,53,55,-1,57,59,-1,-1,61,63,-1,-1,65,67,69,71,-1,-1,-1,-1,-1,-1,-1,-1,-1,-1,-1,-1,-1,-1,-1,-1,-1,-1,-1,-1,-1,-1,-1,-1,-1,-1],"loss_changes":[1.0537047E8,1.861407E8,1.452322E8,7.117539E7,2.4214909E8,3.6379942E8,2.0253448E8,1.2504684E4,0E0,1.21722536E8,1.7725437E8,1.7595773E8,9.710963E7,1.2234229E8,1.3014902E8,0E0,0E0,1.03682264E8,9.066802E7,6.919954E7,2.025527E8,1.320262E7,7.188213E7,0E0,0E0,5.1740344E5,0E0,5.2999907E8,4.874605E8,1.2570055E6,3.510357E7,9.592785E7,2.5143242E7,4.6635236E7,0E0,1.9699725E8,2.2544928E8,0E0,0E0,2.0703984E7,1.1841676E7,0E0,0E0,3.5733357E8,3.310882E8,3.8051008E8,3.5493485E8,0E0,0E0,0E0,0E0,0E0,0E0,0E0,0E0,0E0,0E0,0E0,0E0,0E0,0E0,0E0,0E0,0E0,0E0,0E0,0E0,0E0,0E0,0E0,0E0,0E0,0E0],"parents":[2147483647,0,0,1,1,2,2,3,3,4,4,5,5,6,6,7,7,9,9,10,10,11,11,12,12,13,13,14,14,17,17,18,18,19,19,20,20,21,21,22,22,25,25,27,27,28,28,29,29,30,30,31,31,32,32,33,33,35,35,36,36,39,39,40,40,43,43,44,44,45,45,46,46],"right_children":[2,4,6,8,10,12,14,16,-1,18,20,22,24,26,28,-1,-1,30,32,34,36,38,40,-1,-1,42,-1,44,46,48,50,52,54,56,-1,58,60,-1,-1,62,64,-1,-1,66,68,70,72,-1,-1,-1,-1,-1,-1,-1,-1,-1,-1,-1,-1,-1,-1,-1,-1,-1,-1,-1,-1,-1,-1,-1,-1,-1,-1],"split_conditions":[-1.3558137E0,-1.4404173E0,-1.2261175E0,-2.2333348E-1,-4.8160326E-2,5.23561E-1,-1.2056391E0,-1.118913E0,-2.3749236E3,7.2486866E-1,-1.6493369E0,1.9376765E-1,2.5959482E-2,-5.8419675E-1,-1.6509777E-1,-5.6944046E1,-7.042383E0,-6.2171036E-1,6.133072E-1,3.9891127E-1,1.4237778E0,-1.471956E0,1.1558478E0,-5.51206E2,-2.5382964E3,-6.9760597E-1,2.6855017E3,-3.5667637E-1,3.2483637E-1,-5.490437E-1,-6.729497E-1,-1.5979956E0,-9.9473053E-1,-2.4018158E-1,-1.5138054E3,-6.4229804E-1,3.9175662E-1,-1.3704347E1,-1.2463278E3,1.4237778E0,-4.4710755E-2,-2.169044E2,2.5529884E1,5.3502154E-1,7.2486866E-1,-5.298532E-1,3.6408967E-1,6.261094E1,5.2683655E2,-2.4658733E2,-1.8154346E3,-1.2777407E3,1.0473582E3,4.469801E2,-8.6848706E2,9.326479E2,-4.4674725E2,6.696665E1,1.8855405E3,-1.9256143E3,1.101078E3,2.0577302E3,2.5545587E2,3.7994708E2,-6.65485E2,2.4489622E2,-5.2418353E2,4.404313E2,2.261558E3,-1.8253783E3,-3.7392755E2,1.7231014E3,-2.0039852E1],"split_indices":[4,0,4,2,1,5,4,2,0,3,4,0,3,5,6,0,0,5,2,2,3,2,1,0,0,0,0,6,6,0,3,2,0,6,0,5,2,0,0,3,2,0,0,4,3,4,6,0,0,0,0,0,0,0,0,0,0,0,0,0,0,0,0,0,0,0,0,0,0,0,0,0,0],"split_type":[0,0,0,0,0,0,0,0,0,0,0,0,0,0,0,0,0,0,0,0,0,0,0,0,0,0,0,0,0,0,0,0,0,0,0,0,0,0,0,0,0,0,0,0,0,0,0,0,0,0,0,0,0,0,0,0,0,0,0,0,0,0,0,0,0,0,0,0,0,0,0,0,0],"sum_hessian":[7E2,7.8E1,6.22E2,4E0,7.4E1,2.2E1,6E2,2E0,2E0,2.8E1,4.6E1,1.1E1,1.1E1,5E0,5.95E2,1E0,1E0,1.1E1,1.7E1,9E0,3.7E1,4E0,7E0,4E0,7E0,2E0,3E0,2.68E2,3.27E2,3E0,8E0,1.1E1,6E0,7E0,2E0,3E1,7E0,1E0,3E0,5E0,2E0,1E0,1E0,2.3E2,3.8E1,8E1,2.47E2,1E0,2E0,2E0,6E0,1E0,1E1,1E0,5E0,3E0,4E0,7E0,2.3E1,3E0,4E0,4E0,1E0,1E0,1E0,1.44E2,8.6E1,2.4E1,1.4E1,2.2E1,5.8E1,1E1,2.37E2],"tree_param":{"num_deleted":"0","num_feature":"7","num_nodes":"73","size_leaf_vector":"1"}},{"base_weights":[8.918168E0,-5.749868E2,1.9548758E2,5.337758E2,-1.9533744E3,-1.9015004E2,1.01072345E3,-6.957255E2,6.2159424E3,-2.9692126E3,1.4848386E3,1.3035769E3,-5.153249E2,4.1481475E3,3.1376694E2,4.798818E3,-1.0527521E3,-1.4330511E3,9.522443E3,-1.2873491E3,-8.8213955E3,3.7984844E3,-3.7755337E3,5.8516736E2,3.8788425E3,5.9042847E2,-1.0042813E3,2.7219785E3,2.3336033E3,-1.8561255E3,1.1035952E3,2.1288245E3,-6.5853546E2,-6.3397295E3,-3.2684833E2,-3.5080938E3,1.3413243E3,1.138516E4,2.9507217E3,-2.4415388E3,4.644518E3,-9.607336E3,9.148389E1,2.2844507E3,4.614104E2,-1.6113533E3,6.304026E2,-1.79928E1,3.1202395E3,3.7451367E2,5.243123E3,1.4120304E3,-3.7212632E3,-3.1914001E3,-3.057989E2,3.7161558E3,-5.5081987E3,2.29096E3,-3.6305293E3,4.908325E3,1.3927469E2,7.41917E2,-2.3251382E3,-1.0676406E3,1.1146492E2,-4.3556995E2,-1.318477E3,3.595929E3,9.862506E2,-2.7084668E2,1.3608533E3,-1.3254688E3,6.596179E1,2.1344436E3,1.1865645E2,-3.955591E2,-3.0722996E3,8.1702106E2,-4.3213983E2,1.0647051E3,-2.0770384E2,1.2931155E3,-3.2806836E2,-4.830756E2,6.7033246E2,7.443985E1,1.9382561E3,7.448758E2,-3.302774E2,-1.5148125E3,3.5801633E2,-4.0114185E2,-1.9240736E3,1.0415714E3,-3.228583E2,-8.604958E2,1.6302506E3,-2.8716072E3,-2.8887482E2,-1.8839356E0,1.6525055E3,-2.726545E3,-6.858506E2,2.2325012E3,-4.15708E1,-1.6349886E3,2.1544975E2],"categories":[],"categories_nodes":[],"categories_segments":[],"categories_sizes":[],"default_left":[0,0,0,0,0,0,0,0,0,0,0,0,0,0,0,0,0,0,0,0,0,0,0,0,0,0,0,0,0,0,0,0,0,0,0,0,0,0,0,0,0,0,0,0,0,0,0,0,0,0,0,0,0,0,0,0,0,0,0,0,0,0,0,0,0,0,0,0,0,0,0,0,0,0,0,0,0,0,0,0,0,0,0,0,0,0,0,0,0,0,0,0,0,0,0,0,0,0,0,0,0,0,0,0,0,0,0],"id":14,"left_children":[1,3,5,7,9,11,13,15,17,19,21,23,25,27,29,31,33,35,37,39,41,43,45,47,49,51,53,-1,55,57,59,-1,-1,61,63,65,-1,67,69,71,73,75,-1,-1,77,-1,-1,79,81,83,85,87,89,91,93,95,97,99,101,103,105,-1,-1,-1,-1,-1,-1,-1,-1,-1,-1,-1,-1,-1,-1,-1,-1,-1,-1,-1,-1,-1,-1,-1,-1,-1,-1,-1,-1,-1,-1,-1,-1,-1,-1,-1,-1,-1,-1,-1,-1,-1,-1,-1,-1,-1,-1],"loss_changes":[7.6478504E7,2.6085448E8,1.6744534E8,6.680165E8,2.6985162E8,1.7650328E8,3.7261523E8,1.6002611E8,4.4360013E8,5.693556E8,2.3341278E8,1.1798644E8,1.617112E8,2.558686E8,2.437002E8,9.5911304E7,2.8576563E8,8.919292E7,1.1330048E8,3.331253E8,9.617562E7,1.6204725E8,6.7551064E7,7.956698E7,6.4968784E7,3.3116397E8,3.1525056E8,0E0,2.806702E8,2.8794435E8,3.808903E8,0E0,0E0,1.3105952E8,1.52554E8,2.73648E6,0E0,4.414464E6,2.8533852E7,2.1140283E8,8.115608E7,4.952448E7,0E0,0E0,3.833922E7,0E0,0E0,1.0589042E8,5.4864016E7,2.2055618E7,5.92224E7,2.1263894E8,1.0393394E8,2.9016205E8,4.6356787E8,2.5314336E8,6.4667864E7,8.872803E7,1.7733354E8,2.6952723E8,2.7570102E8,0E0,0E0,0E0,0E0,0E0,0E0,0E0,0E0,0E0,0E0,0E0,0E0,0E0,0E0,0E0,0E0,0E0,0E0,0E0,0E0,0E0,0E0,0E0,0E0,0E0,0E0,0E0,0E0,0E0,0E0,0E0,0E0,0E0,0E0,0E0,0E0,0E0,0E0,0E0,0E0,0E0,0E0,0E0,0E0,0E0,0E0],"parents":[2147483647,0,0,1,1,2,2,3,3,4,4,5,5,6,6,7,7,8,8,9,9,10,10,11,11,12,12,13,13,14,14,15,15,16,16,17,17,18,18,19,19,20,20,21,21,22,22,23,23,24,24,25,25,26,26,28,28,29,29,30,30,33,33,34,34,35,35,37,37,38,38,39,39,40,40,41,41,44,44,47,47,48,48,49,49,50,50,51,51,52,52,53,53,54,54,55,55,56,56,57,57,58,58,59,59,60,60],"right_children":[2,4,6,8,10,12,14,16,18,20,22,24,26,28,30,32,34,36,38,40,42,44,46,48,50,52,54,-1,56,58,60,-1,-1,62,64,66,-1,68,70,72,74,76,-1,-1,78,-1,-1,80,82,84,86,88,90,92,94,96,98,100,102,104,106,-1,-1,-1,-1,-1,-1,-1,-1,-1,-1,-1,-1,-1,-1,-1,-1,-1,-1,-1,-1,-1,-1,-1,-1,-1,-1,-1,-1,-1,-1,-1,-1,-1,-1,-1,-1,-1,-1,-1,-1,-1,-1,-1,-1,-1,-1],"split_conditions":[-8.461683E-1,6.1598007E-2,6.838534E-1,-2.3152287E-1,1.0469806E0,-1.3093228E0,8.691045E-1,-1.5031099E0,-5.9484977E-1,5.9645665E-1,1.2773981E0,1.4237778E0,-7.551152E-1,-7.0849407E-1,-8.6273545E-1,-9.9473053E-1,-1.1756291E0,-1.1432928E0,1.1084157E0,1.430137E0,1.4706926E0,-5.740495E-1,1.1558478E0,9.9241775E-1,-2.5191918E-1,1.4237778E0,-2.3633003E-1,2.7219785E3,1.3464488E0,-1.4388224E0,-5.031977E-1,2.1288245E3,-6.5853546E2,-1.2918551E0,-1.1237257E0,-1.2918551E0,1.3413243E3,1.4201484E0,-1.4404173E0,7.2486866E-1,-6.527234E-1,-1.6241482E0,9.148389E1,2.2844507E3,-6.729497E-1,-1.6113533E3,6.304026E2,-1.6982956E0,1.2337036E0,1.1558478E0,-1.5128145E0,8.460124E-1,2.9575774E-1,1.0851413E0,-1.1064098E0,8.3273835E-2,-1.033569E-1,6.510656E-1,-1.3932203E0,8.8840175E-1,-3.422185E-1,7.41917E2,-2.3251382E3,-1.0676406E3,1.1146492E2,-4.3556995E2,-1.318477E3,3.595929E3,9.862506E2,-2.7084668E2,1.3608533E3,-1.3254688E3,6.596179E1,2.1344436E3,1.1865645E2,-3.955591E2,-3.0722996E3,8.1702106E2,-4.3213983E2,1.0647051E3,-2.0770384E2,1.2931155E3,-3.2806836E2,-4.830756E2,6.7033246E2,7.443985E1,1.9382561E3,7.448758E2,-3.302774E2,-1.5148125E3,3.5801633E2,-4.0114185E2,-1.9240736E3,1.0415714E3,-3.228583E2,-8.604958E2,1.6302506E3,-2.8716072E3,-2.8887482E2,-1.8839356E0,1.6525055E3,-2.726545E3,-6.858506E2,2.2325012E3,-4.15708E1,-1.6349886E3,2.1544975E2],"split_indices":[0,6,6,6,4,6,6,2,5,4,6,3,4,2,2,0,2,0,4,6,5,2,1,5,0,3,4,0,5,2,2,0,0,0,4,0,0,2,0,3,4,2,0,0,3,0,0,6,0,1,4,5,6,0,2,2,0,4,2,5,2,0,0,0,0,0,0,0,0,0,0,0,0,0,0,0,0,0,0,0,0,0,0,0,0,0,0,0,0,0,0,0,0,0,0,0,0,0,0,0,0,0,0,0,0,0,0],"split_type":[0,0,0,0,0,0,0,0,0,0,0,0,0,0,0,0,0,0,0,0,0,0,0,0,0,0,0,0,0,0,0,0,0,0,0,0,0,0,0,0,0,0,0,0,0,0,0,0,0,0,0,0,0,0,0,0,0,0,0,0,0,0,0,0,0,0,0,0,0,0,0,0,0,0,0,0,0,0,0,0,0,0,0,0,0,0,0,0,0,0,0,0,0,0,0,0,0,0,0,0,0,0,0,0,0,0,0],"sum_hessian":[7E2,1.69E2,5.31E2,9.4E1,7.5E1,3.61E2,1.7E2,7.8E1,1.6E1,5.8E1,1.7E1,6.4E1,2.97E2,3E1,1.4E2,4E0,7.4E1,5E0,1.1E1,4.6E1,1.2E1,1.2E1,5E0,5.1E1,1.3E1,9.1E1,2.06E2,7E0,2.3E1,3.7E1,1.03E2,3E0,1E0,8E0,6.6E1,4E0,1E0,8E0,3E0,3.9E1,7E0,1.1E1,1E0,5E0,7E0,4E0,1E0,4.2E1,9E0,4E0,9E0,7.7E1,1.4E1,4.9E1,1.57E2,2E1,3E0,1.1E1,2.6E1,2E1,8.3E1,1E0,7E0,1.1E1,5.5E1,2E0,2E0,7E0,1E0,1E0,2E0,2.2E1,1.7E1,4E0,3E0,1E0,1E1,3E0,4E0,6E0,3.6E1,7E0,2E0,2E0,2E0,2E0,7E0,5.4E1,2.3E1,1.1E1,3E0,3.2E1,1.7E1,2.6E1,1.31E2,4E0,1.6E1,1E0,2E0,7E0,4E0,4E0,2.2E1,1.3E1,7E0,7E0,7.6E1],"tree_param":{"num_deleted":"0","num_feature":"7","num_nodes":"107","size_leaf_vector":"1"}},{"base_weights":[1.2676595E1,7.4903366E1,-1.3816256E3,1.3143526E2,-1.6013314E3,2.511306E3,-2.6756182E3,1.3285353E1,1.5211737E3,-3.7809695E3,2.6856562E3,-7.362677E2,3.5712712E3,-3.5274434E3,2.252412E3,6.682858E1,-5.3075566E3,-1.1810232E3,1.944309E3,-2.2425308E3,-2.235313E3,6.957264E3,-3.8062842E2,-7.903288E2,5.473977E3,-2.0195382E3,-5.5368584E3,1.0609254E3,-2.3994083E2,1.5178773E2,-3.2340415E3,-2.3256458E3,-2.789108E2,2.4325981E3,-2.7414976E3,3.2808316E2,-4.867825E3,3.2993527E2,2.562949E3,-3.0497083E2,-5.067715E1,5.770576E2,2.159931E3,-3.5114226E3,1.0697614E3,-2.327198E3,-7.959339E2,2.4468733E1,1.7725927E3,2.4495558E2,-1.2944175E3,1.8516095E2,-3.106708E2,1.4930945E2,1.1649644E3,-1.3728352E3,2.0863283E0,-4.9434158E2,6.665852E2,-2.5287013E2,-1.651269E3,1.1933712E2,-1.4055503E3,6.333079E2,-4.6429483E2],"categories":[],"categories_nodes":[],"categories_segments":[],"categories_sizes":[],"default_left":[0,0,0,0,0,0,0,0,0,0,0,0,0,0,0,0,0,0,0,0,0,0,0,0,0,0,0,0,0,0,0,0,0,0,0,0,0,0,0,0,0,0,0,0,0,0,0,0,0,0,0,0,0,0,0,0,0,0,0,0,0,0,0,0,0],"id":15,"left_children":[1,3,5,7,9,11,13,15,17,19,21,-1,23,25,27,29,31,-1,33,35,-1,37,-1,39,41,43,45,-1,-1,47,49,-1,51,53,55,57,59,-1,-1,-1,-1,-1,-1,61,63,-1,-1,-1,-1,-1,-1,-1,-1,-1,-1,-1,-1,-1,-1,-1,-1,-1,-1,-1,-1],"loss_changes":[6.09243E7,6.388968E7,1.5784203E8,1.06872344E8,2.1572414E8,5.0871028E7,1.044951E8,1.7157664E8,1.2543556E8,6.798355E7,1.4396088E8,0E0,6.241813E7,4.941827E7,1.8504682E7,1.676326E8,7.159587E7,0E0,1.1649437E8,8.258048E7,0E0,2.776184E7,0E0,2.5003838E5,1.6787792E7,6.3671788E7,3.0645024E7,0E0,0E0,2.3480717E8,6.918362E7,0E0,2.6733132E6,1.2156642E8,2.524364E7,2.9855838E7,1.072936E7,0E0,0E0,0E0,0E0,0E0,0E0,4.315948E7,1.6894222E7,0E0,0E0,0E0,0E0,0E0,0E0,0E0,0E0,0E0,0E0,0E0,0E0,0E0,0E0,0E0,0E0,0E0,0E0,0E0,0E0],"parents":[2147483647,0,0,1,1,2,2,3,3,4,4,5,5,6,6,7,7,8,8,9,9,10,10,12,12,13,13,14,14,15,15,16,16,18,18,19,19,21,21,23,23,24,24,25,25,26,26,29,29,30,30,32,32,33,33,34,34,35,35,36,36,43,43,44,44],"right_children":[2,4,6,8,10,12,14,16,18,20,22,-1,24,26,28,30,32,-1,34,36,-1,38,-1,40,42,44,46,-1,-1,48,50,-1,52,54,56,58,60,-1,-1,-1,-1,-1,-1,62,64,-1,-1,-1,-1,-1,-1,-1,-1,-1,-1,-1,-1,-1,-1,-1,-1,-1,-1,-1,-1],"split_conditions":[1.6133235E0,1.570403E0,-5.484381E-1,1.3273158E0,1.6359842E0,-1.4404173E0,1.2337036E0,1.6749836E0,-1.4994178E0,1.6199323E0,3.4232992E-1,-7.362677E2,-1.4461516E0,-1.0663375E-1,1.1558478E0,1.2773981E0,-2.4476264E-1,-1.1810232E3,1.3464488E0,1.1558478E0,-2.235313E3,1.1558478E0,-3.8062842E2,-2.5191918E-1,1.1558478E0,-9.3942046E-1,4.804126E-1,1.0609254E3,-2.3994083E2,1.2616479E0,-1.3558137E0,-2.3256458E3,1.9376765E-1,2.7562898E-1,1.5741566E0,-7.755936E-1,-1.3570651E0,3.2993527E2,2.562949E3,-3.0497083E2,-5.067715E1,5.770576E2,2.159931E3,-8.461683E-1,4.908922E-1,-2.327198E3,-7.959339E2,2.4468733E1,1.7725927E3,2.4495558E2,-1.2944175E3,1.8516095E2,-3.106708E2,1.4930945E2,1.1649644E3,-1.3728352E3,2.0863283E0,-4.9434158E2,6.665852E2,-2.5287013E2,-1.651269E3,1.1933712E2,-1.4055503E3,6.333079E2,-4.6429483E2],"split_indices":[2,6,5,6,6,0,0,4,5,6,0,0,5,4,1,6,2,0,5,1,0,1,0,0,1,4,4,0,0,6,4,0,0,4,5,4,2,0,0,0,0,0,0,0,0,0,0,0,0,0,0,0,0,0,0,0,0,0,0,0,0,0,0,0,0],"split_type":[0,0,0,0,0,0,0,0,0,0,0,0,0,0,0,0,0,0,0,0,0,0,0,0,0,0,0,0,0,0,0,0,0,0,0,0,0,0,0,0,0,0,0,0,0,0,0,0,0,0,0,0,0,0,0,0,0,0,0,0,0,0,0,0,0],"sum_hessian":[7E2,6.71E2,2.9E1,6.5E2,2.1E1,7E0,2.2E1,6E2,5E1,1.4E1,7E0,1E0,6E0,1.9E1,3E0,5.95E2,5E0,3E0,4.7E1,1.1E1,3E0,3E0,4E0,2E0,4E0,1.2E1,7E0,2E0,1E0,5.81E2,1.4E1,3E0,2E0,4.3E1,4E0,6E0,5E0,1E0,2E0,1E0,1E0,2E0,2E0,8E0,4E0,3E0,4E0,5.75E2,6E0,3E0,1.1E1,1E0,1E0,1.9E1,2.4E1,2E0,2E0,3E0,3E0,1E0,4E0,2E0,6E0,3E0,1E0],"tree_param":{"num_deleted":"0","num_feature":"7","num_nodes":"65","size_leaf_vector":"1"}},{"base_weights":[7.151614E-2,-9.023602E1,1.0219714E3,2.6243576E2,-3.7907336E2,-1.5021383E3,1.33225E3,-3.5770297E2,1.4150232E3,-4.7261196E3,-2.652333E2,3.519988E2,3.0300896E3,-9.8925903E2,1.8913341E3,2.9073403E3,-4.6491388E2,-2.5554824E3,2.1436416E3,9.6549744E2,-5.631778E2,4.5412466E3,-4.701781E2,4.986473E3,-5.277949E2,-4.8836053E2,-8.726751E3,2.9715894E3,-3.0711992E3,5.783056E3,-1.2877291E3,1.7412664E3,-2.5597986E3,1.1474526E3,9.248829E1,-3.6107354E3,1.2322579E3,-1.0566444E3,7.9971936E2,6.4074756E3,-7.184848E2,1.3203556E3,-1.3548684E3,7.662152E2,6.7770083E3,-4.7833383E2,9.374678E2,9.732681E1,-8.877606E2,-3.3989563E2,-2.8603047E3,-2.2752423E2,1.4851959E3,-1.5053268E3,1.583205E3,-7.054203E1,2.4901309E3,9.5483734E2,-7.022918E2,1.5944884E3,-2.8072467E2,3.9854916E2,-1.3760933E3,-3.1656152E2,-1.2332532E3,7.8132556E2,-7.9251205E1,-1.3085356E3,-2.0334074E2,-3.271905E2,1.1507461E3,8.828985E2,2.3208394E3,2.626614E2,-1.0465496E3,1.1654922E3,-7.823846E2,2.3511716E3,-2.5572452E2,1.0690342E3,-3.3770233E2],"categories":[],"categories_nodes":[],"categories_segments":[],"categories_sizes":[],"default_left":[0,0,0,0,0,0,0,0,0,0,0,0,0,0,0,0,0,0,0,0,0,0,0,0,0,0,0,0,0,0,0,0,0,0,0,0,0,0,0,0,0,0,0,0,0,0,0,0,0,0,0,0,0,0,0,0,0,0,0,0,0,0,0,0,0,0,0,0,0,0,0,0,0,0,0,0,0,0,0,0,0],"id":16,"left_children":[1,3,5,7,9,-1,11,13,15,17,19,21,23,25,27,29,31,-1,33,35,37,39,41,43,45,47,49,51,53,55,57,59,61,-1,-1,63,65,67,69,71,-1,-1,73,75,77,-1,79,-1,-1,-1,-1,-1,-1,-1,-1,-1,-1,-1,-1,-1,-1,-1,-1,-1,-1,-1,-1,-1,-1,-1,-1,-1,-1,-1,-1,-1,-1,-1,-1,-1,-1],"loss_changes":[6.4784188E7,6.5802252E7,1.1330067E8,2.0850251E8,1.7442459E8,0E0,9.0470424E7,2.7174566E8,2.8750886E8,2.5272091E8,1.2778498E8,1.2613009E8,1.4184358E8,5.732173E8,2.3428005E8,6.950852E8,2.1705518E8,0E0,1.1163168E7,8.746093E7,1.8915738E8,9.301276E7,1.3956211E8,9.304211E7,1.3998135E7,2.8412445E8,4.4392064E7,2.621216E8,1.5648784E8,5.1705446E8,1.2045595E8,2.2501069E8,1.9526827E8,0E0,0E0,7.74384E5,1.3415511E8,2.5498149E8,4.3463146E8,2.48112E5,0E0,0E0,1.3154358E8,6.2747828E7,7.948106E7,0E0,2.5682356E7,0E0,0E0,0E0,0E0,0E0,0E0,0E0,0E0,0E0,0E0,0E0,0E0,0E0,0E0,0E0,0E0,0E0,0E0,0E0,0E0,0E0,0E0,0E0,0E0,0E0,0E0,0E0,0E0,0E0,0E0,0E0,0E0,0E0,0E0],"parents":[2147483647,0,0,1,1,2,2,3,3,4,4,6,6,7,7,8,8,9,9,10,10,11,11,12,12,13,13,14,14,15,15,16,16,18,18,19,19,20,20,21,21,22,22,23,23,24,24,25,25,26,26,27,27,28,28,29,29,30,30,31,31,32,32,35,35,36,36,37,37,38,38,39,39,42,42,43,43,44,44,46,46],"right_children":[2,4,6,8,10,-1,12,14,16,18,20,22,24,26,28,30,32,-1,34,36,38,40,42,44,46,48,50,52,54,56,58,60,62,-1,-1,64,66,68,70,72,-1,-1,74,76,78,-1,80,-1,-1,-1,-1,-1,-1,-1,-1,-1,-1,-1,-1,-1,-1,-1,-1,-1,-1,-1,-1,-1,-1,-1,-1,-1,-1,-1,-1,-1,-1,-1,-1,-1,-1],"split_conditions":[1.5308281E0,-2.1395604E-1,-1.6730019E0,-7.792068E-1,-1.5835135E-1,-1.5021383E3,7.9304665E-1,8.6267537E-1,2.0699307E-1,7.2486866E-1,-6.729497E-1,-1.2222384E0,1.3387151E0,6.6471785E-1,1.640853E0,3.4232992E-1,-5.534538E-1,-2.5554824E3,-9.9473053E-1,-1.5813067E0,1.4237778E0,1.4237778E0,-6.729497E-1,-5.67381E-1,-1.0275351E0,-9.49633E-1,-1.6241482E0,-4.8631692E-1,1.2337036E0,-1.1432928E0,-6.729497E-1,2.7562898E-1,-6.2169814E-1,1.1474526E3,9.248829E1,-1.4404173E0,2.8999197E-1,-1.2918551E0,1.9376765E-1,1.6793904E0,-7.184848E2,1.3203556E3,1.6793904E0,-8.9767504E-1,1.0388689E0,-4.7833383E2,-8.4252185E-1,9.732681E1,-8.877606E2,-3.3989563E2,-2.8603047E3,-2.2752423E2,1.4851959E3,-1.5053268E3,1.583205E3,-7.054203E1,2.4901309E3,9.5483734E2,-7.022918E2,1.5944884E3,-2.8072467E2,3.9854916E2,-1.3760933E3,-3.1656152E2,-1.2332532E3,7.8132556E2,-7.9251205E1,-1.3085356E3,-2.0334074E2,-3.271905E2,1.1507461E3,8.828985E2,2.3208394E3,2.626614E2,-1.0465496E3,1.1654922E3,-7.823846E2,2.3511716E3,-2.5572452E2,1.0690342E3,-3.3770233E2],"split_indices":[0,2,5,2,2,0,6,4,5,3,3,2,6,4,4,0,2,0,0,5,3,3,3,2,2,2,2,6,0,0,3,4,6,0,0,0,6,0,0,0,0,0,0,2,2,0,2,0,0,0,0,0,0,0,0,0,0,0,0,0,0,0,0,0,0,0,0,0,0,0,0,0,0,0,0,0,0,0,0,0,0],"split_type":[0,0,0,0,0,0,0,0,0,0,0,0,0,0,0,0,0,0,0,0,0,0,0,0,0,0,0,0,0,0,0,0,0,0,0,0,0,0,0,0,0,0,0,0,0,0,0,0,0,0,0,0,0,0,0,0,0,0,0,0,0,0,0,0,0,0,0,0,0,0,0,0,0,0,0,0,0,0,0,0,0],"sum_hessian":[7E2,6.44E2,5.6E1,2.9E2,3.54E2,2E0,5.4E1,1.89E2,1.01E2,8E0,3.46E2,3.5E1,1.9E1,1.48E2,4.1E1,5.6E1,4.5E1,5E0,3E0,6.7E1,2.79E2,5E0,3E1,1.2E1,7E0,1.4E2,8E0,3.4E1,7E0,3.3E1,2.3E1,2.2E1,2.3E1,1E0,2E0,3E0,6.4E1,2.05E2,7.4E1,4E0,1E0,4E0,2.6E1,4E0,8E0,4E0,3E0,1.06E2,3.4E1,1E0,7E0,1.2E1,2.2E1,6E0,1E0,1E1,2.3E1,4E0,1.9E1,9E0,1.3E1,8E0,1.5E1,1E0,2E0,3.3E1,3.1E1,2E1,1.85E2,4.6E1,2.8E1,2E0,2E0,1.3E1,1.3E1,2E0,2E0,7E0,1E0,1E0,2E0],"tree_param":{"num_deleted":"0","num_feature":"7","num_nodes":"81","size_leaf_vector":"1"}},{"base_weights":[2.550323E0,-5.0982258E1,1.6570778E3,9.781511E0,-2.0566758E3,2.4391423E3,-7.415994E2,-1.171406E2,1.0497019E3,-4.755731E3,1.770584E3,-3.6661203E2,3.2019915E3,3.6588104E0,-3.560107E3,2.5165176E3,-5.7940685E1,-2.0015625E1,-5.700872E3,-3.316797E2,1.0556194E3,1.4012068E3,1.5407057E3,-8.5727264E1,1.563472E3,-4.970141E3,3.3225654E3,-2.1285593E3,3.7164785E3,2.323328E3,-1.9406974E3,1.6876817E2,-1.777752E2,-2.451396E3,-7.4586235E3,-4.4406876E2,9.274297E2,1.8656697E3,-1.5885089E2,-2.9307916E0,-8.832913E2,-4.5999777E2,1.2611915E3,-2.7002454E3,-5.860003E2,9.630469E0,1.3226058E3,-1.4169045E3,8.7151605E2,2.6525327E3,4.8978214E2,2.4574712E2,2.3277537E3,-8.277852E2,1.4127509E3,-1.3429016E3,1.17203514E2,-5.780244E2,-2.453895E3,4.0188282E1,3.771551E2,8.1517975E1,6.163674E2],"categories":[],"categories_nodes":[],"categories_segments":[],"categories_sizes":[],"default_left":[0,0,0,0,0,0,0,0,0,0,0,0,0,0,0,0,0,0,0,0,0,0,0,0,0,0,0,0,0,0,0,0,0,0,0,0,0,0,0,0,0,0,0,0,0,0,0,0,0,0,0,0,0,0,0,0,0,0,0,0,0,0,0],"id":17,"left_children":[1,3,5,7,9,11,-1,13,15,17,19,-1,21,23,25,27,29,31,33,35,-1,-1,37,39,41,43,45,47,49,51,53,-1,-1,55,57,-1,59,61,-1,-1,-1,-1,-1,-1,-1,-1,-1,-1,-1,-1,-1,-1,-1,-1,-1,-1,-1,-1,-1,-1,-1,-1,-1],"loss_changes":[6.2172836E7,8.289409E7,7.707203E7,8.736763E7,2.1502013E8,5.6978616E7,0E0,2.4539894E8,1.17124744E8,5.359696E7,3.424268E7,0E0,3.1842672E7,7.974604E7,2.1060966E8,1.8070195E8,1.9280954E8,1.3340584E6,3.8833664E7,8.603556E6,0E0,0E0,7.042564E6,1.1743947E8,2.59936E8,1.891346E8,1.4153836E7,1.0513701E8,2.5257632E8,1.4899653E8,1.4363773E8,0E0,0E0,3.0523994E7,8.171616E6,0E0,6.1653475E5,1.850336E6,0E0,0E0,0E0,0E0,0E0,0E0,0E0,0E0,0E0,0E0,0E0,0E0,0E0,0E0,0E0,0E0,0E0,0E0,0E0,0E0,0E0,0E0,0E0,0E0,0E0],"parents":[2147483647,0,0,1,1,2,2,3,3,4,4,5,5,7,7,8,8,9,9,10,10,12,12,13,13,14,14,15,15,16,16,17,17,18,18,19,19,22,22,23,23,24,24,25,25,26,26,27,27,28,28,29,29,30,30,33,33,34,34,36,36,37,37],"right_children":[2,4,6,8,10,12,-1,14,16,18,20,-1,22,24,26,28,30,32,34,36,-1,-1,38,40,42,44,46,48,50,52,54,-1,-1,56,58,-1,60,62,-1,-1,-1,-1,-1,-1,-1,-1,-1,-1,-1,-1,-1,-1,-1,-1,-1,-1,-1,-1,-1,-1,-1,-1,-1],"split_conditions":[1.5814365E0,1.4908444E0,1.1730356E0,1.1351143E0,9.275206E-1,-1.314857E0,-7.415994E2,1.0922605E0,1.2785578E0,-1.0622905E0,7.2486866E-1,-3.6661203E2,4.7197706E-1,9.57702E-1,6.305872E-1,-1.2218271E0,-1.7827627E-1,-6.9760597E-1,-4.8160326E-2,5.077171E-1,1.0556194E3,1.4012068E3,-1.0944977E-1,9.041676E-1,-3.250696E-1,1.9376765E-1,2.5959482E-2,1.2349607E0,-6.2169814E-1,-2.23209E-1,1.4706926E0,1.6876817E2,-1.777752E2,-8.461683E-1,-8.461683E-1,-4.4406876E2,1.9376765E-1,-1.6675969E0,-1.5885089E2,-2.9307916E0,-8.832913E2,-4.5999777E2,1.2611915E3,-2.7002454E3,-5.860003E2,9.630469E0,1.3226058E3,-1.4169045E3,8.7151605E2,2.6525327E3,4.8978214E2,2.4574712E2,2.3277537E3,-8.277852E2,1.4127509E3,-1.3429016E3,1.17203514E2,-5.780244E2,-2.453895E3,4.0188282E1,3.771551E2,8.1517975E1,6.163674E2],"split_indices":[5,5,2,5,2,4,0,5,5,4,3,0,6,5,4,6,6,0,1,4,0,0,2,5,4,0,3,5,6,6,5,0,0,0,0,0,0,2,0,0,0,0,0,0,0,0,0,0,0,0,0,0,0,0,0,0,0,0,0,0,0,0,0],"split_type":[0,0,0,0,0,0,0,0,0,0,0,0,0,0,0,0,0,0,0,0,0,0,0,0,0,0,0,0,0,0,0,0,0,0,0,0,0,0,0,0,0,0,0,0,0,0,0,0,0,0,0,0,0,0,0,0,0,0,0,0,0,0,0],"sum_hessian":[7E2,6.79E2,2.1E1,6.6E2,1.9E1,1.8E1,3E0,5.89E2,7.1E1,1.1E1,8E0,3E0,1.5E1,5.7E2,1.9E1,3E1,4.1E1,2E0,9E0,4E0,4E0,7E0,8E0,5.4E2,3E1,1.6E1,3E0,6E0,2.4E1,1.8E1,2.3E1,1E0,1E0,4E0,5E0,2E0,2E0,7E0,1E0,5.27E2,1.3E1,1.4E1,1.6E1,6E0,1E1,1E0,2E0,4E0,2E0,6E0,1.8E1,1.5E1,3E0,2.1E1,2E0,2E0,2E0,1E0,4E0,1E0,1E0,1E0,6E0],"tree_param":{"num_deleted":"0","num_feature":"7","num_nodes":"63","size_leaf_vector":"1"}},{"base_weights":[3.655194E0,9.344541E2,-7.703891E1,1.5967616E3,-2.454281E2,-3.8189194E3,-5.364146E1,7.6469055E2,3.418315E3,-8.8377075E2,3.6831216E2,-1.3638218E3,-2.4561916E2,-2.7556195E2,2.8291632E2,-1.7770844E3,1.307608E3,4.641403E3,1.0223293E3,-1.3488848E3,1.132533E3,-2.1156212E2,-6.366655E3,-1.3918151E3,6.087572E2,2.9557617E2,-2.7139824E3,-6.55174E2,1.9234365E3,1.4987876E3,3.7711026E2,6.9086755E2,-5.9900977E2,-7.100968E2,4.5821616E2,-3.6354077E2,2.9385422E3,2.265218E2,-1.0062434E3,-2.7926318E3,3.689549E2,3.7868E3,-2.1939739E3,1.4910605E3,-5.0764256E1,-1.0737975E3,-1.7693262E1,-7.4886584E2,2.6682108E2,6.699042E2,-7.967891E1,-4.322168E1,-2.2633272E2,8.185841E0,1.9801143E2,1.5884737E2,-3.0157745E2,2.3852461E2,9.6246545E2,3.7062695E1,2.588898E3,-9.405354E2,1.7892387E2,1.4686212E2,1.5939136E3,2.3792044E2,-1.097843E3,2.5962823E2,2.1493892E3,5.5525055E2,-3.0372232E2],"categories":[],"categories_nodes":[],"categories_segments":[],"categories_sizes":[],"default_left":[0,0,0,0,0,0,0,0,0,0,0,0,0,0,0,0,0,0,0,0,0,0,0,0,0,0,0,0,0,0,0,0,0,0,0,0,0,0,0,0,0,0,0,0,0,0,0,0,0,0,0,0,0,0,0,0,0,0,0,0,0,0,0,0,0,0,0,0,0,0,0],"id":18,"left_children":[1,3,5,7,9,11,13,15,17,-1,19,-1,-1,21,23,25,27,29,31,33,35,37,39,41,43,-1,45,47,49,-1,-1,-1,51,-1,53,55,57,59,61,-1,-1,63,65,67,69,-1,-1,-1,-1,-1,-1,-1,-1,-1,-1,-1,-1,-1,-1,-1,-1,-1,-1,-1,-1,-1,-1,-1,-1,-1,-1],"loss_changes":[5.2724092E7,4.415281E7,5.6352748E7,5.194988E7,3.5890196E7,5.004376E6,4.8103028E7,3.8203056E7,2.7490456E7,0E0,2.5149372E7,0E0,0E0,1.4990666E8,1.4054547E8,1.5614108E7,2.78524E7,2.119552E6,1.1760586E7,1.2123497E7,3.6193284E7,1.3426072E8,1.0084763E8,1.8277914E8,1.2518376E8,0E0,8.978854E6,1.928197E7,1.211356E7,0E0,0E0,0E0,1.03442125E5,0E0,2.429035E5,5.116869E6,9.17436E5,2.1440624E8,4.6929382E8,0E0,0E0,2.7593608E7,1.6487042E8,3.2036026E8,2.2862771E8,0E0,0E0,0E0,0E0,0E0,0E0,0E0,0E0,0E0,0E0,0E0,0E0,0E0,0E0,0E0,0E0,0E0,0E0,0E0,0E0,0E0,0E0,0E0,0E0,0E0,0E0],"parents":[2147483647,0,0,1,1,2,2,3,3,4,4,5,5,6,6,7,7,8,8,10,10,13,13,14,14,15,15,16,16,17,17,18,18,19,19,20,20,21,21,22,22,23,23,24,24,26,26,27,27,28,28,32,32,34,34,35,35,36,36,37,37,38,38,41,41,42,42,43,43,44,44],"right_children":[2,4,6,8,10,12,14,16,18,-1,20,-1,-1,22,24,26,28,30,32,34,36,38,40,42,44,-1,46,48,50,-1,-1,-1,52,-1,54,56,58,60,62,-1,-1,64,66,68,70,-1,-1,-1,-1,-1,-1,-1,-1,-1,-1,-1,-1,-1,-1,-1,-1,-1,-1,-1,-1,-1,-1,-1,-1,-1,-1],"split_conditions":[-1.4900204E0,5.161261E-1,-1.462623E0,-4.143416E-1,6.828762E-1,9.36579E-1,4.7197706E-1,-1.0554645E0,7.8801674E-1,-8.8377075E2,-1.6911765E0,-1.3638218E3,-2.4561916E2,4.6506557E-1,-9.9473053E-1,-6.9760597E-1,-8.461683E-1,1.1903291E0,-4.8160326E-2,-9.9473053E-1,1.1558478E0,4.804126E-1,1.3822658E0,-1.2192913E0,1.0156242E0,2.9557617E2,9.36579E-1,-9.9807635E-2,-8.864489E-1,1.4987876E3,3.7711026E2,6.9086755E2,9.36579E-1,-7.100968E2,9.36579E-1,1.196027E-1,-6.729497E-1,4.7358647E-1,9.5824105E-1,-2.7926318E3,3.689549E2,-1.6493369E0,-9.792587E-1,9.6311176E-1,-2.5191918E-1,-1.0737975E3,-1.7693262E1,-7.4886584E2,2.6682108E2,6.699042E2,-7.967891E1,-4.322168E1,-2.2633272E2,8.185841E0,1.9801143E2,1.5884737E2,-3.0157745E2,2.3852461E2,9.6246545E2,3.7062695E1,2.588898E3,-9.405354E2,1.7892387E2,1.4686212E2,1.5939136E3,2.3792044E2,-1.097843E3,2.5962823E2,2.1493892E3,5.5525055E2,-3.0372232E2],"split_indices":[6,5,6,5,5,0,6,4,0,0,6,0,0,6,0,0,0,4,1,0,1,4,0,4,6,0,0,4,5,0,0,0,0,0,0,2,3,4,4,0,0,4,2,6,0,0,0,0,0,0,0,0,0,0,0,0,0,0,0,0,0,0,0,0,0,0,0,0,0,0,0],"split_type":[0,0,0,0,0,0,0,0,0,0,0,0,0,0,0,0,0,0,0,0,0,0,0,0,0,0,0,0,0,0,0,0,0,0,0,0,0,0,0,0,0,0,0,0,0,0,0,0,0,0,0,0,0,0,0,0,0,0,0,0,0,0,0,0,0,0,0,0,0,0,0],"sum_hessian":[7E2,5.5E1,6.45E2,3.5E1,2E1,3E0,6.42E2,2.5E1,1E1,3E0,1.7E1,2E0,1E0,3.87E2,2.55E2,4E0,2.1E1,6E0,4E0,5E0,1.2E1,3.84E2,3E0,4.1E1,2.14E2,1E0,3E0,5E0,1.6E1,5E0,1E0,2E0,2E0,3E0,2E0,7E0,5E0,2.48E2,1.36E2,2E0,1E0,5E0,3.6E1,9.1E1,1.23E2,2E0,1E0,2E0,3E0,1.4E1,2E0,1E0,1E0,1E0,1E0,3E0,4E0,1E0,4E0,2.46E2,2E0,5.8E1,7.8E1,2E0,3E0,1.2E1,2.4E1,8.3E1,8E0,4.1E1,8.2E1],"tree_param":{"num_deleted":"0","num_feature":"7","num_nodes":"71","size_leaf_vector":"1"}},{"base_weights":[6.34282E0,-7.660895E2,9.188699E1,1.9261658E2,-3.1724854E3,1.2508297E3,-3.6367874E1,-1.725149E3,1.5925575E3,3.2580945E2,-5.531833E3,1.6969381E3,-2.0282827E3,-7.069849E1,3.202493E3,-1.3633272E1,-6.286919E3,3.8104624E3,-3.2763235E2,-3.6711072E3,2.8630034E3,5.832088E2,-6.3881865E3,-8.6128235E1,3.4830803E3,-4.7094136E3,1.203022E3,-1.6113028E1,-2.818356E3,1.9327179E3,-2.8055176E1,2.6436267E3,-2.138078E3,-2.690941E3,-6.141003E2,5.51725E3,-1.8358184E3,-3.0941658E3,3.1714885E3,9.175586E1,-5.1946035E3,-6.962211E3,-9.7191216E1,-2.28513E3,1.8433812E3,5.04171E3,1.7337598E2,-1.8693132E3,4.3481076E2,-9.012474E1,1.2378309E3,-4.12516E3,-4.25159E2,-1.2011924E2,2.2952473E2,1.5200153E3,2.9744308E2,-1.0218755E3,5.869233E2,-4.831834E2,2.0683829E2,7.989051E2,2.0303428E3,1.8566797E1,-1.1293413E3,-1.3471036E3,3.680684E1,-2.3424962E2,1.154296E3,1.04733696E2,-6.3443558E1,-4.4936456E2,-1.7232941E3,-7.884257E2,-2.3151697E3,4.050126E2,-1.3364023E3,1.5840812E3,-2.240338E2,1.0539926E3,2.3303088E3,-3.692502E2,1.92169E3,-3.7189918E0,-7.686226E2,6.006124E2,-9.4094147E2,-1.94662E3,-5.6459534E2,3.4636542E2,-5.5894495E2,9.04834E1,1.2802735E1],"categories":[],"categories_nodes":[],"categories_segments":[],"categories_sizes":[],"default_left":[0,0,0,0,0,0,0,0,0,0,0,0,0,0,0,0,0,0,0,0,0,0,0,0,0,0,0,0,0,0,0,0,0,0,0,0,0,0,0,0,0,0,0,0,0,0,0,0,0,0,0,0,0,0,0,0,0,0,0,0,0,0,0,0,0,0,0,0,0,0,0,0,0,0,0,0,0,0,0,0,0,0,0,0,0,0,0,0,0,0,0,0,0],"id":19,"left_children":[1,3,5,7,9,11,13,15,17,19,21,23,25,27,29,31,33,35,37,39,-1,-1,41,43,45,47,-1,49,51,-1,53,55,57,-1,59,61,63,65,67,69,71,73,-1,75,77,79,81,-1,-1,83,85,87,89,-1,91,-1,-1,-1,-1,-1,-1,-1,-1,-1,-1,-1,-1,-1,-1,-1,-1,-1,-1,-1,-1,-1,-1,-1,-1,-1,-1,-1,-1,-1,-1,-1,-1,-1,-1,-1,-1,-1,-1],"loss_changes":[4.6390428E7,1.6210293E8,9.3986E7,1.3967008E8,1.6687616E8,9.5600744E7,6.3605892E7,1.716802E8,1.2901239E8,3.6661014E8,8.924259E7,1.7864939E8,1.4840206E8,8.4694504E7,6.2980664E7,1.0162071E8,8.580872E7,1.450467E8,1.7438051E8,4.060559E7,0E0,0E0,3.603555E7,1.2725919E8,1.4356678E8,6.525943E7,0E0,5.161919E7,3.2648E7,0E0,4.755327E5,2.7002936E7,5.8589252E7,0E0,5.0074925E6,2.124048E7,1.4873054E7,4.5463984E7,2.4383736E7,3.0794772E5,1.556336E6,1.2442048E7,0E0,1.1642734E8,1.4637672E8,5.1871296E7,9.539824E7,0E0,0E0,1.0084176E8,1.0990886E8,2.4901672E7,1.3509147E7,0E0,2.753639E4,0E0,0E0,0E0,0E0,0E0,0E0,0E0,0E0,0E0,0E0,0E0,0E0,0E0,0E0,0E0,0E0,0E0,0E0,0E0,0E0,0E0,0E0,0E0,0E0,0E0,0E0,0E0,0E0,0E0,0E0,0E0,0E0,0E0,0E0,0E0,0E0,0E0,0E0],"parents":[2147483647,0,0,1,1,2,2,3,3,4,4,5,5,6,6,7,7,8,8,9,9,10,10,11,11,12,12,13,13,14,14,15,15,16,16,17,17,18,18,19,19,22,22,23,23,24,24,25,25,27,27,28,28,30,30,31,31,32,32,34,34,35,35,36,36,37,37,38,38,39,39,40,40,41,41,43,43,44,44,45,45,46,46,49,49,50,50,51,51,52,52,54,54],"right_children":[2,4,6,8,10,12,14,16,18,20,22,24,26,28,30,32,34,36,38,40,-1,-1,42,44,46,48,-1,50,52,-1,54,56,58,-1,60,62,64,66,68,70,72,74,-1,76,78,80,82,-1,-1,84,86,88,90,-1,92,-1,-1,-1,-1,-1,-1,-1,-1,-1,-1,-1,-1,-1,-1,-1,-1,-1,-1,-1,-1,-1,-1,-1,-1,-1,-1,-1,-1,-1,-1,-1,-1,-1,-1,-1,-1,-1,-1],"split_conditions":[-1.3570651E0,-1.4388224E0,-1.0793889E0,-2.3633003E-1,-4.547659E-1,1.3951128E0,1.6359842E0,-4.4111365E-1,-2.5918799E-2,-6.6637564E-1,-1.7188653E0,-2.7728677E-1,6.394545E-1,1.570403E0,3.4232992E-1,2.5959482E-2,-5.484381E-1,1.4702001E0,7.056746E-1,-1.2465959E0,2.8630034E3,5.832088E2,1.3822658E0,-6.669663E-1,6.1110276E-1,-1.1756291E0,1.203022E3,1.5452874E0,1.9274667E-1,1.9327179E3,6.394545E-1,-5.490437E-1,1.4237778E0,-2.690941E3,-5.490437E-1,-1.2007114E0,7.8801674E-1,1.4237778E0,-4.8160326E-2,4.908922E-1,-5.490437E-1,-1.618648E0,-9.7191216E1,-1.5374215E0,-2.5191918E-1,7.2486866E-1,1.6793904E0,-1.8693132E3,4.3481076E2,1.4565479E0,1.6749836E0,-6.729497E-1,1.1558478E0,-1.2011924E2,1.3822658E0,1.5200153E3,2.9744308E2,-1.0218755E3,5.869233E2,-4.831834E2,2.0683829E2,7.989051E2,2.0303428E3,1.8566797E1,-1.1293413E3,-1.3471036E3,3.680684E1,-2.3424962E2,1.154296E3,1.04733696E2,-6.3443558E1,-4.4936456E2,-1.7232941E3,-7.884257E2,-2.3151697E3,4.050126E2,-1.3364023E3,1.5840812E3,-2.240338E2,1.0539926E3,2.3303088E3,-3.692502E2,1.92169E3,-3.7189918E0,-7.686226E2,6.006124E2,-9.4094147E2,-1.94662E3,-5.6459534E2,3.4636542E2,-5.5894495E2,9.04834E1,1.2802735E1],"split_indices":[2,2,2,4,4,4,6,4,6,4,6,4,0,6,0,3,5,4,4,4,0,0,0,6,5,2,0,4,2,0,0,0,3,0,0,6,0,3,1,0,0,6,0,6,0,3,0,0,0,4,4,3,1,0,0,0,0,0,0,0,0,0,0,0,0,0,0,0,0,0,0,0,0,0,0,0,0,0,0,0,0,0,0,0,0,0,0,0,0,0,0,0,0],"split_type":[0,0,0,0,0,0,0,0,0,0,0,0,0,0,0,0,0,0,0,0,0,0,0,0,0,0,0,0,0,0,0,0,0,0,0,0,0,0,0,0,0,0,0,0,0,0,0,0,0,0,0,0,0,0,0,0,0,0,0,0,0,0,0,0,0,0,0,0,0,0,0,0,0,0,0,0,0,0,0,0,0,0,0,0,0,0,0,0,0,0,0,0,0],"sum_hessian":[7E2,6.9E1,6.31E2,5E1,1.9E1,6.2E1,5.69E2,2.1E1,2.9E1,8E0,1.1E1,5.5E1,7E0,5.64E2,5E0,1.6E1,5E0,1.3E1,1.6E1,6E0,2E0,1E0,1E1,2.8E1,2.7E1,5E0,2E0,5.54E2,1E1,2E0,3E0,7E0,9E0,3E0,2E0,1E1,3E0,9E0,7E0,2E0,4E0,9E0,1E0,1.3E1,1.5E1,1.8E1,9E0,4E0,1E0,5.24E2,3E1,6E0,4E0,1E0,2E0,2E0,5E0,7E0,2E0,1E0,1E0,4E0,6E0,2E0,1E0,6E0,3E0,1E0,6E0,1E0,1E0,1E0,3E0,2E0,7E0,5E0,8E0,6E0,9E0,1.3E1,5E0,8E0,1E0,5.09E2,1.5E1,2.6E1,4E0,2E0,4E0,2E0,2E0,1E0,1E0],"tree_param":{"num_deleted":"0","num_feature":"7","num_nodes":"93","size_leaf_vector":"1"}},{"base_weights":[5.9673395E0,4.5975302E2,-1.4244644E2,1.9050288E3,-3.8531433E2,-9.318033E3,-1.9365072E1,1.0989102E3,7.410496E3,-4.1564023E3,-8.124255E0,-5.7956866E2,-3.068122E3,2.1159536E3,-1.0406152E2,2.2953164E3,-9.0879596E2,-1.6245317E3,3.0048936E3,-2.1228008E2,-6.7504375E3,-5.8374713E2,1.8629886E3,-7.5370245E2,5.707056E3,-2.728378E3,-1.2427422E1,7.256569E2,5.7967554E3,-3.235658E3,1.2998939E3,-8.853872E2,3.7202228E2,-5.614111E2,-2.2055933E3,1.0058491E3,-1.9009963E3,5.593526E3,3.0872488E2,1.3727926E3,-2.2772356E3,6.7423755E3,-3.86325E2,-4.6460244E3,1.5616449E3,1.6412119E3,-5.7623516E1,1.860368E1,2.597516E3,-1.06071495E2,2.1608342E3,6.540813E1,-2.2271057E3,1.48202E3,-3.413102E2,-4.169054E2,-7.621797E1,7.4834476E0,1.5198096E3,5.1196384E2,-8.3230084E2,5.2338477E2,2.03525E3,-1.0092062E3,2.934208E2,-8.673632E2,4.8728116E2,2.41407E3,5.6576056E2,-1.6345226E3,6.270296E2,1.0530247E3,-8.7028275E1,-1.6605577E2,6.7985916E1],"categories":[],"categories_nodes":[],"categories_segments":[],"categories_sizes":[],"default_left":[0,0,0,0,0,0,0,0,0,0,0,0,0,0,0,0,0,0,0,0,0,0,0,0,0,0,0,0,0,0,0,0,0,0,0,0,0,0,0,0,0,0,0,0,0,0,0,0,0,0,0,0,0,0,0,0,0,0,0,0,0,0,0,0,0,0,0,0,0,0,0,0,0,0,0],"id":20,"left_children":[1,3,5,7,9,11,13,15,17,19,21,-1,-1,23,25,27,29,-1,-1,31,33,35,37,39,41,43,45,47,49,51,53,55,-1,-1,-1,57,59,61,63,-1,65,67,-1,69,71,-1,73,-1,-1,-1,-1,-1,-1,-1,-1,-1,-1,-1,-1,-1,-1,-1,-1,-1,-1,-1,-1,-1,-1,-1,-1,-1,-1,-1,-1],"loss_changes":[4.7276468E7,2.1202853E8,5.9724243E8,2.7589238E8,1.5643213E8,2.7242432E7,9.480678E7,1.390018E8,3.2160854E8,1.0087891E8,1.0987011E8,0E0,0E0,2.10406E8,1.21166456E8,1.9365194E8,1.17270984E8,0E0,0E0,5.985896E6,3.851456E6,1.652359E8,1.3743086E8,1.07859864E8,7.385923E7,1.4711014E8,1.2124955E8,1.3634045E8,9.766938E7,1.6072394E8,1.120995E8,9.2044375E5,0E0,0E0,0E0,1.4324906E8,1.4021072E8,2.0242928E7,4.7540216E7,0E0,2.8650392E7,3.5508064E7,0E0,7.624718E7,2.266624E7,0E0,6.8488616E7,0E0,0E0,0E0,0E0,0E0,0E0,0E0,0E0,0E0,0E0,0E0,0E0,0E0,0E0,0E0,0E0,0E0,0E0,0E0,0E0,0E0,0E0,0E0,0E0,0E0,0E0,0E0,0E0],"parents":[2147483647,0,0,1,1,2,2,3,3,4,4,5,5,6,6,7,7,8,8,9,9,10,10,13,13,14,14,15,15,16,16,19,19,20,20,21,21,22,22,23,23,24,24,25,25,26,26,27,27,28,28,29,29,30,30,31,31,35,35,36,36,37,37,38,38,40,40,41,41,43,43,44,44,46,46],"right_children":[2,4,6,8,10,12,14,16,18,20,22,-1,-1,24,26,28,30,-1,-1,32,34,36,38,40,42,44,46,48,50,52,54,56,-1,-1,-1,58,60,62,64,-1,66,68,-1,70,72,-1,74,-1,-1,-1,-1,-1,-1,-1,-1,-1,-1,-1,-1,-1,-1,-1,-1,-1,-1,-1,-1,-1,-1,-1,-1,-1,-1,-1,-1],"split_conditions":[-8.820456E-1,-5.37491E-1,-8.4812206E-1,-1.0036484E0,-3.81747E-1,-1.4404173E0,-7.539602E-1,5.3502154E-1,-1.4761585E0,-9.7355103E-1,1.2349607E0,-5.7956866E2,-3.068122E3,-7.835117E-1,-6.333684E-1,4.6483114E-1,1.1288941E0,-1.6245317E3,3.0048936E3,7.8801674E-1,-1.1432928E0,-1.3548656E0,1.2785578E0,-1.4404173E0,9.36579E-1,1.4237778E0,-6.283204E-1,-7.22411E-1,-1.2056391E0,-1.462623E0,2.5959482E-2,-1.1392307E0,3.7202228E2,-5.614111E2,-2.2055933E3,1.4237778E0,-6.729497E-1,-1.297664E0,1.3303921E0,1.3727926E3,1.5308281E0,1.4237778E0,-3.86325E2,1.6925454E0,-3.296805E-1,1.6412119E3,-4.4111365E-1,1.860368E1,2.597516E3,-1.06071495E2,2.1608342E3,6.540813E1,-2.2271057E3,1.48202E3,-3.413102E2,-4.169054E2,-7.621797E1,7.4834476E0,1.5198096E3,5.1196384E2,-8.3230084E2,5.2338477E2,2.03525E3,-1.0092062E3,2.934208E2,-8.673632E2,4.8728116E2,2.41407E3,5.6576056E2,-1.6345226E3,6.270296E2,1.0530247E3,-8.7028275E1,-1.6605577E2,6.7985916E1],"split_indices":[6,5,6,6,5,0,6,4,2,4,5,0,0,6,6,2,4,0,0,0,0,6,5,0,0,3,6,5,4,6,3,2,0,0,0,3,3,6,5,0,0,3,0,2,2,0,4,0,0,0,0,0,0,0,0,0,0,0,0,0,0,0,0,0,0,0,0,0,0,0,0,0,0,0,0],"split_type":[0,0,0,0,0,0,0,0,0,0,0,0,0,0,0,0,0,0,0,0,0,0,0,0,0,0,0,0,0,0,0,0,0,0,0,0,0,0,0,0,0,0,0,0,0,0,0,0,0,0,0,0,0,0,0,0,0,0,0,0,0,0,0,0,0,0,0,0,0,0,0,0,0,0,0],"sum_hessian":[7E2,1.72E2,5.28E2,6.3E1,1.09E2,6E0,5.22E2,5.6E1,7E0,9E0,1E2,1E0,5E0,1.9E1,5.03E2,3.5E1,2.1E1,1E0,6E0,4E0,5E0,7.7E1,2.3E1,1.1E1,8E0,1.6E1,4.87E2,2.5E1,1E1,1E1,1.1E1,3E0,1E0,1E0,4E0,3.5E1,4.2E1,6E0,1.7E1,2E0,9E0,7E0,1E0,1.1E1,5E0,3E0,4.84E2,2.4E1,1E0,2E0,8E0,6E0,4E0,4E0,7E0,1E0,2E0,2.9E1,6E0,8E0,3.4E1,2E0,4E0,2E0,1.5E1,8E0,1E0,5E0,2E0,1E1,1E0,2E0,3E0,1.76E2,3.08E2],"tree_param":{"num_deleted":"0","num_feature":"7","num_nodes":"75","size_leaf_vector":"1"}},{"base_weights":[1.3638172E1,-2.7238815E1,1.0350577E3,1.7368792E1,-1.9911313E3,-6.7786755E2,1.9291797E3,2.824119E2,-1.9966478E2,-3.5877454E3,1.0017471E3,5.164404E2,-5.926391E2,4.746898E3,7.8505316E2,-9.9065985E2,5.492836E2,1.3641399E3,-4.9445633E2,7.146224E1,-4.51148E3,-2.9644016E2,1.59735E3,-4.051714E2,4.7193283E2,1.7234918E3,6.499573E2,-2.8071387E2,1.3394178E3,-1.7258228E3,2.269607E3,1.9540906E3,-8.650241E1,9.60918E2,2.5308706E3,-2.8284036E3,-4.049641E2,1.6335997E2,-1.3120197E2,-1.9774836E3,-1.9653317E3,1.3826485E2,5.2987384E2,4.3988087E1,-1.9139395E2,6.003587E2,4.5440366E2,3.2219318E2,-8.165448E2,-5.9178E2,1.3108488E3,2.805517E2,1.504576E3,-1.8383939E2,5.712384E2,4.9497653E2,-5.108768E2,-6.055523E2,9.571302E0,-8.94522E2,3.0593115E2,-1.1881172E2,2.9359045E2],"categories":[],"categories_nodes":[],"categories_segments":[],"categories_sizes":[],"default_left":[0,0,0,0,0,0,0,0,0,0,0,0,0,0,0,0,0,0,0,0,0,0,0,0,0,0,0,0,0,0,0,0,0,0,0,0,0,0,0,0,0,0,0,0,0,0,0,0,0,0,0,0,0,0,0,0,0,0,0,0,0,0,0],"id":21,"left_children":[1,3,5,7,9,11,13,15,17,19,21,23,-1,25,27,29,31,33,35,37,39,-1,41,43,-1,-1,-1,-1,45,47,49,51,53,55,-1,-1,57,-1,-1,59,-1,-1,-1,-1,-1,-1,61,-1,-1,-1,-1,-1,-1,-1,-1,-1,-1,-1,-1,-1,-1,-1,-1],"loss_changes":[2.9296732E7,5.9167652E7,4.2659964E7,3.8079256E7,7.527108E7,1.6517504E7,5.4302304E7,1.0178873E8,1.684772E8,3.4123776E7,8.689468E6,6.4804105E6,0E0,4.30416E5,1.4608356E7,1.2855196E8,2.2077869E8,1.5728765E8,2.4162342E8,9.6024456E5,2.8392528E7,0E0,1.45692E5,6.073982E5,0E0,0E0,0E0,0E0,5.53316E6,1.2283214E8,9.77009E7,2.3547862E8,1.8031667E8,1.0559187E8,0E0,0E0,2.1506083E8,0E0,0E0,1.8090746E7,0E0,0E0,0E0,0E0,0E0,0E0,3.062549E6,0E0,0E0,0E0,0E0,0E0,0E0,0E0,0E0,0E0,0E0,0E0,0E0,0E0,0E0,0E0,0E0],"parents":[2147483647,0,0,1,1,2,2,3,3,4,4,5,5,6,6,7,7,8,8,9,9,10,10,11,11,13,13,14,14,15,15,16,16,17,17,18,18,19,19,20,20,22,22,23,23,28,28,29,29,30,30,31,31,32,32,33,33,36,36,39,39,46,46],"right_children":[2,4,6,8,10,12,14,16,18,20,22,24,-1,26,28,30,32,34,36,38,40,-1,42,44,-1,-1,-1,-1,46,48,50,52,54,56,-1,-1,58,-1,-1,60,-1,-1,-1,-1,-1,-1,62,-1,-1,-1,-1,-1,-1,-1,-1,-1,-1,-1,-1,-1,-1,-1,-1],"split_conditions":[1.5563893E0,1.4908444E0,-3.999175E-1,-1.6509777E-1,6.3077694E-1,-7.999067E-1,4.539695E-1,-1.1237257E0,-1.1919869E0,-1.0622905E0,-1.6911765E0,-1.2726334E0,-5.926391E2,-4.0048143E-1,-1.0213339E0,1.2337036E0,-4.8160326E-2,-1.2192913E0,-1.3704628E-1,-6.9760597E-1,-2.5191918E-1,-2.9644016E2,-6.729497E-1,-5.490437E-1,4.7193283E2,1.7234918E3,6.499573E2,-2.8071387E2,1.6187667E0,-6.326063E-1,-1.1391902E0,-6.015663E-1,1.4237778E0,1.1180909E0,2.5308706E3,-2.8284036E3,-4.7524425E-1,1.6335997E2,-1.3120197E2,-8.461683E-1,-1.9653317E3,1.3826485E2,5.2987384E2,4.3988087E1,-1.9139395E2,6.003587E2,1.0607197E0,3.2219318E2,-8.165448E2,-5.9178E2,1.3108488E3,2.805517E2,1.504576E3,-1.8383939E2,5.712384E2,4.9497653E2,-5.108768E2,-6.055523E2,9.571302E0,-8.94522E2,3.0593115E2,-1.1881172E2,2.9359045E2],"split_indices":[5,5,6,6,2,2,6,4,4,4,6,2,0,0,4,0,1,4,6,0,0,0,3,0,0,0,0,0,5,2,6,6,3,2,0,0,4,0,0,0,0,0,0,0,0,0,6,0,0,0,0,0,0,0,0,0,0,0,0,0,0,0,0],"split_type":[0,0,0,0,0,0,0,0,0,0,0,0,0,0,0,0,0,0,0,0,0,0,0,0,0,0,0,0,0,0,0,0,0,0,0,0,0,0,0,0,0,0,0,0,0,0,0,0,0,0,0,0,0,0,0,0,0,0,0,0,0,0,0],"sum_hessian":[7E2,6.74E2,2.6E1,6.6E2,1.4E1,9E0,1.7E1,2.97E2,3.63E2,9E0,5E0,5E0,4E0,4E0,1.3E1,5.1E1,2.46E2,5.7E1,3.06E2,2E0,7E0,1E0,4E0,3E0,2E0,2E0,2E0,3E0,1E1,4.2E1,9E0,7.6E1,1.7E2,5.5E1,2E0,2E0,3.04E2,1E0,1E0,4E0,3E0,1E0,3E0,1E0,2E0,5E0,5E0,1.1E1,3.1E1,3E0,6E0,5.8E1,1.8E1,1.35E2,3.5E1,4.4E1,1.1E1,6.4E1,2.4E2,3E0,1E0,2E0,3E0],"tree_param":{"num_deleted":"0","num_feature":"7","num_nodes":"63","size_leaf_vector":"1"}},{"base_weights":[1.2310683E1,9.394691E1,-4.850525E2,1.515238E1,2.8091492E3,-4.9615366E3,-1.941593E2,-1.9361308E2,5.077523E2,4.260251E3,-5.382742E3,-2.1723987E3,-2.6796875E2,-1.8369415E3,4.6097714E2,-1.1224624E2,-5.69429E3,4.1747983E3,3.4363388E1,-1.0646348E3,5.680192E3,-2.3438875E3,-7.834659E1,-4.05871E2,2.8528506E2,-4.1363492E2,-5.1655903E3,2.058871E3,-4.573939E2,1.8802644E2,-1.22231E3,-7.9818756E1,-2.018017E3,1.5996941E3,6.136275E3,-1.4883856E3,3.7909274E2,-4.851256E2,8.8907524E1,7.8903135E3,1.00795935E3,1.2709923E3,-2.2253613E3,-2.4009038E3,-3.2741553E2,-2.1521355E2,3.1416882E3,1.3954242E2,-4.2612476E3,1.5904428E2,-2.7222775E2,-5.959803E2,9.843251E2,1.045789E3,-2.951302E2,-4.5651505E2,2.4021392E3,5.90369E2,-9.4263226E2,-1.1274444E2,6.956221E2,2.761264E3,-1.9604767E2,-2.2122774E2,1.198425E3,1.0508185E3,-6.3229083E2,1.7912735E2,-9.016833E2,4.7074542E2,-4.4479648E2,5.4488293E2,-4.601014E2,1.196311E3,9.41134E1,-2.0468971E2,6.136632E2,2.563297E2,-2.1098086E3],"categories":[],"categories_nodes":[],"categories_segments":[],"categories_sizes":[],"default_left":[0,0,0,0,0,0,0,0,0,0,0,0,0,0,0,0,0,0,0,0,0,0,0,0,0,0,0,0,0,0,0,0,0,0,0,0,0,0,0,0,0,0,0,0,0,0,0,0,0,0,0,0,0,0,0,0,0,0,0,0,0,0,0,0,0,0,0,0,0,0,0,0,0,0,0,0,0,0,0],"id":22,"left_children":[1,3,5,7,9,11,13,15,17,19,21,-1,23,25,27,29,31,33,35,37,39,-1,-1,-1,-1,41,43,45,47,49,51,-1,-1,53,55,57,59,-1,-1,61,63,65,67,-1,69,71,73,75,77,-1,-1,-1,-1,-1,-1,-1,-1,-1,-1,-1,-1,-1,-1,-1,-1,-1,-1,-1,-1,-1,-1,-1,-1,-1,-1,-1,-1,-1,-1],"loss_changes":[2.8508168E7,1.2896511E8,1.2795237E8,6.0464124E7,2.2501538E8,6.2261696E7,1.0201396E8,1.8420838E8,3.0364582E8,1.1946266E8,3.5299296E7,0E0,5.253885E6,1.257809E8,1.0072897E8,1.3622514E8,3.1835968E7,9.120397E7,8.2454296E7,3.4867625E6,1.1596131E8,0E0,0E0,0E0,0E0,6.38701E7,1.0720323E8,6.2236584E7,1.0050358E8,1.2115939E8,3.059637E8,0E0,0E0,5.2160404E7,1.6978154E8,1.7193949E8,1.88296E8,0E0,0E0,9.582051E7,2.9011334E7,9.032473E7,2.3816792E7,0E0,1.1090466E7,2.6891472E7,3.9421696E7,6.248649E7,9.107601E7,0E0,0E0,0E0,0E0,0E0,0E0,0E0,0E0,0E0,0E0,0E0,0E0,0E0,0E0,0E0,0E0,0E0,0E0,0E0,0E0,0E0,0E0,0E0,0E0,0E0,0E0,0E0,0E0,0E0,0E0],"parents":[2147483647,0,0,1,1,2,2,3,3,4,4,5,5,6,6,7,7,8,8,9,9,10,10,12,12,13,13,14,14,15,15,16,16,17,17,18,18,19,19,20,20,25,25,26,26,27,27,28,28,29,29,30,30,33,33,34,34,35,35,36,36,39,39,40,40,41,41,42,42,44,44,45,45,46,46,47,47,48,48],"right_children":[2,4,6,8,10,12,14,16,18,20,22,-1,24,26,28,30,32,34,36,38,40,-1,-1,-1,-1,42,44,46,48,50,52,-1,-1,54,56,58,60,-1,-1,62,64,66,68,-1,70,72,74,76,78,-1,-1,-1,-1,-1,-1,-1,-1,-1,-1,-1,-1,-1,-1,-1,-1,-1,-1,-1,-1,-1,-1,-1,-1,-1,-1,-1,-1,-1,-1],"split_conditions":[1.2449381E0,1.1425463E0,1.2654165E0,6.838534E-1,1.4155638E0,1.0307063E-1,-7.351176E-1,6.342183E-1,7.7772856E-1,-8.461683E-1,4.908922E-1,-2.1723987E3,-4.0048143E-1,-9.793128E-1,1.810092E-1,5.3502154E-1,-1.6730019E0,-7.755936E-1,-9.9473053E-1,-1.2918551E0,9.041676E-1,-2.3438875E3,-7.834659E1,-4.05871E2,2.8528506E2,1.1558478E0,7.2486866E-1,-4.8160326E-2,1.4237778E0,1.0851413E0,1.3233178E0,-7.9818756E1,-2.018017E3,2.5959482E-2,-1.5412759E0,-9.052898E-1,4.7358647E-1,-4.851256E2,8.8907524E1,1.2337036E0,1.3822658E0,-1.2518739E0,-1.6964958E0,-2.4009038E3,-1.5031099E0,3.4232992E-1,1.049462E0,6.394545E-1,-9.991657E-1,1.5904428E2,-2.7222775E2,-5.959803E2,9.843251E2,1.045789E3,-2.951302E2,-4.5651505E2,2.4021392E3,5.90369E2,-9.4263226E2,-1.1274444E2,6.956221E2,2.761264E3,-1.9604767E2,-2.2122774E2,1.198425E3,1.0508185E3,-6.3229083E2,1.7912735E2,-9.016833E2,4.7074542E2,-4.4479648E2,5.4488293E2,-4.601014E2,1.196311E3,9.41134E1,-2.0468971E2,6.136632E2,2.563297E2,-2.1098086E3],"split_indices":[4,4,4,6,2,2,5,6,6,0,0,0,0,5,5,4,5,4,0,0,5,0,0,0,0,1,3,1,3,0,2,0,0,3,5,4,4,0,0,0,0,5,5,0,2,0,2,0,6,0,0,0,0,0,0,0,0,0,0,0,0,0,0,0,0,0,0,0,0,0,0,0,0,0,0,0,0,0,0],"split_type":[0,0,0,0,0,0,0,0,0,0,0,0,0,0,0,0,0,0,0,0,0,0,0,0,0,0,0,0,0,0,0,0,0,0,0,0,0,0,0,0,0,0,0,0,0,0,0,0,0,0,0,0,0,0,0,0,0,0,0,0,0,0,0,0,0,0,0,0,0,0,0,0,0,0,0,0,0,0,0],"sum_hessian":[7E2,6.02E2,9.8E1,5.86E2,1.6E1,5E0,9.3E1,4.12E2,1.74E2,1.4E1,2E0,3E0,2E0,2.6E1,6.7E1,4.07E2,5E0,1.9E1,1.55E2,3E0,1.1E1,1E0,1E0,1E0,1E0,1.9E1,7E0,2.4E1,4.3E1,3.21E2,8.6E1,1E0,4E0,9E0,1E1,2.8E1,1.27E2,2E0,1E0,7E0,4E0,1E1,9E0,4E0,3E0,8E0,1.6E1,3.8E1,5E0,2.45E2,7.6E1,7.4E1,1.2E1,5E0,4E0,2E0,8E0,9E0,1.9E1,9.2E1,3.5E1,6E0,1E0,3E0,1E0,6E0,4E0,2E0,7E0,1E0,2E0,3E0,5E0,1.2E1,4E0,2.7E1,1.1E1,2E0,3E0],"tree_param":{"num_deleted":"0","num_feature":"7","num_nodes":"79","size_leaf_vector":"1"}},{"base_weights":[4.0339575E0,5.581141E2,-9.342408E1,-8.9505426E2,1.5803931E3,-9.200142E3,-3.1942102E1,-2.3032878E3,2.6402173E3,2.6363142E3,-3.2470422E2,-3.7496943E3,1.0445625E2,-2.7897916E2,4.5245862E2,1.6293014E3,-3.0918896E3,-1.5607719E3,4.6807427E3,4.556447E3,4.8835916E2,-1.1904716E3,9.078463E2,2.6715173E2,-8.433778E2,2.4292666E3,1.7069217E2,8.5043427E2,-1.5633145E2,-2.1556824E3,-2.0340195E3,-1.1512834E3,-3.215918E1,5.0668584E3,2.3877277E2,8.269749E2,5.6702207E3,-1.2639811E3,3.923274E3,1.93669E3,-1.4726226E3,-8.511784E2,7.720989E2,1.2454333E3,-1.501018E3,-2.5164607E3,3.229503E3,-1.4589625E3,4.9987424E2,-8.0583246E2,1.4270526E3,2.5423381E2,-4.006462E2,2.7509064E2,1.6586113E3,-8.495918E1,9.566754E2,2.550054E3,7.5740314E2,4.131984E2,-1.2306155E3,-7.539297E1,1.693011E3,-5.47845E1,1.3318944E3,-9.648207E2,1.0866914E3,-1.1036344E3,5.69045E1,-1.0469331E2,5.646436E2,1.9137441E3,1.4471773E2,-9.114241E2,-1.4301312E2,-9.670612E1,1.5076736E3,5.1377216E1,-2.4025156E3,9.6571704E2,5.752733E1],"categories":[],"categories_nodes":[],"categories_segments":[],"categories_sizes":[],"default_left":[0,0,0,0,0,0,0,0,0,0,0,0,0,0,0,0,0,0,0,0,0,0,0,0,0,0,0,0,0,0,0,0,0,0,0,0,0,0,0,0,0,0,0,0,0,0,0,0,0,0,0,0,0,0,0,0,0,0,0,0,0,0,0,0,0,0,0,0,0,0,0,0,0,0,0,0,0,0,0,0,0],"id":23,"left_children":[1,3,5,7,9,11,13,15,17,19,21,-1,-1,23,25,27,29,31,33,35,37,-1,39,41,43,45,47,-1,-1,49,-1,-1,51,53,-1,55,57,59,61,63,65,67,69,71,73,-1,75,77,79,-1,-1,-1,-1,-1,-1,-1,-1,-1,-1,-1,-1,-1,-1,-1,-1,-1,-1,-1,-1,-1,-1,-1,-1,-1,-1,-1,-1,-1,-1,-1,-1],"loss_changes":[3.7905836E7,1.5739659E8,3.3396582E8,2.2513466E8,1.2557723E8,1.3034557E8,7.12072E7,1.0427754E8,1.1874449E8,1.6274915E8,1.0689187E8,0E0,0E0,1.21670104E8,1.1154198E8,1.703084E7,7.861251E7,1.7278614E7,9.4672E6,8.254042E7,1.2534173E8,0E0,4.6936356E7,1.1416141E8,2.6836451E8,2.4350299E8,9.568149E7,0E0,0E0,9.7108744E7,0E0,0E0,5.71741E6,1.0263216E7,0E0,1.6636075E7,1.2096797E8,1.1059695E8,5.1683016E7,6.976965E7,6.4945976E7,1.8611555E8,1.7363499E8,1.810327E8,2.315665E8,0E0,1.5472568E8,3.2168144E8,1.2338082E8,0E0,0E0,0E0,0E0,0E0,0E0,0E0,0E0,0E0,0E0,0E0,0E0,0E0,0E0,0E0,0E0,0E0,0E0,0E0,0E0,0E0,0E0,0E0,0E0,0E0,0E0,0E0,0E0,0E0,0E0,0E0,0E0],"parents":[2147483647,0,0,1,1,2,2,3,3,4,4,5,5,6,6,7,7,8,8,9,9,10,10,13,13,14,14,15,15,16,16,17,17,18,18,19,19,20,20,22,22,23,23,24,24,25,25,26,26,29,29,32,32,33,33,35,35,36,36,37,37,38,38,39,39,40,40,41,41,42,42,43,43,44,44,46,46,47,47,48,48],"right_children":[2,4,6,8,10,12,14,16,18,20,22,-1,-1,24,26,28,30,32,34,36,38,-1,40,42,44,46,48,-1,-1,50,-1,-1,52,54,-1,56,58,60,62,64,66,68,70,72,74,-1,76,78,80,-1,-1,-1,-1,-1,-1,-1,-1,-1,-1,-1,-1,-1,-1,-1,-1,-1,-1,-1,-1,-1,-1,-1,-1,-1,-1,-1,-1,-1,-1,-1,-1],"split_conditions":[-1.2518739E0,2.5959482E-2,-1.235881E0,2.088967E-1,5.9645665E-1,1.3822658E0,6.394545E-1,-1.1432928E0,-1.6335435E0,-2.5191918E-1,-9.9473053E-1,-3.7496943E3,1.0445625E2,-5.490437E-1,7.8801674E-1,-2.2333348E-1,-2.4476264E-1,-1.4404173E0,-1.2805346E0,-1.4104228E0,-2.0902556E-1,-1.1904716E3,1.4019388E0,-4.8160326E-2,-5.8820754E-1,-1.1032255E0,-1.2007114E0,8.5043427E2,-1.5633145E2,-2.9258755E-1,-2.0340195E3,-1.1512834E3,1.9376765E-1,2.303606E-1,2.3877277E2,5.4134328E-2,1.1558478E0,-4.8160326E-2,-1.033569E-1,1.4237778E0,1.2337036E0,-3.81747E-1,-2.646328E-1,-8.911424E-1,3.2483637E-1,-2.5164607E3,-5.145066E-1,-1.2876575E0,-9.8387754E-1,-8.0583246E2,1.4270526E3,2.5423381E2,-4.006462E2,2.7509064E2,1.6586113E3,-8.495918E1,9.566754E2,2.550054E3,7.5740314E2,4.131984E2,-1.2306155E3,-7.539297E1,1.693011E3,-5.47845E1,1.3318944E3,-9.648207E2,1.0866914E3,-1.1036344E3,5.69045E1,-1.0469331E2,5.646436E2,1.9137441E3,1.4471773E2,-9.114241E2,-1.4301312E2,-9.670612E1,1.5076736E3,5.1377216E1,-2.4025156E3,9.6571704E2,5.752733E1],"split_indices":[5,3,5,2,4,0,0,0,5,0,0,0,0,0,0,2,2,0,5,4,4,0,4,1,6,5,6,0,0,2,0,0,0,2,0,2,1,1,0,3,0,5,6,5,6,0,6,6,6,0,0,0,0,0,0,0,0,0,0,0,0,0,0,0,0,0,0,0,0,0,0,0,0,0,0,0,0,0,0,0,0],"split_type":[0,0,0,0,0,0,0,0,0,0,0,0,0,0,0,0,0,0,0,0,0,0,0,0,0,0,0,0,0,0,0,0,0,0,0,0,0,0,0,0,0,0,0,0,0,0,0,0,0,0,0,0,0,0,0,0,0,0,0,0,0,0,0,0,0,0,0,0,0,0,0,0,0,0,0,0,0,0,0,0,0],"sum_hessian":[7E2,1.04E2,5.96E2,4.3E1,6.1E1,3E0,5.93E2,3.1E1,1.2E1,3.9E1,2.2E1,2E0,1E0,3.93E2,2E2,5E0,2.6E1,4E0,8E0,2E1,1.9E1,5E0,1.7E1,2E2,1.93E2,2.4E1,1.76E2,3E0,2E0,2.2E1,4E0,1E0,3E0,7E0,1E0,5E0,1.5E1,1.3E1,6E0,1.2E1,5E0,6.2E1,1.38E2,4.6E1,1.47E2,1E0,2.3E1,2.9E1,1.47E2,2.1E1,1E0,2E0,1E0,1E0,6E0,4E0,1E0,7E0,8E0,7E0,6E0,2E0,4E0,7E0,5E0,4E0,1E0,1.6E1,4.6E1,6.9E1,6.9E1,5E0,4.1E1,5.8E1,8.9E1,8E0,1.5E1,2.4E1,5E0,1.4E1,1.33E2],"tree_param":{"num_deleted":"0","num_feature":"7","num_nodes":"81","size_leaf_vector":"1"}},{"base_weights":[2.3708436E0,1.9454323E2,-1.953625E2,7.8874985E1,3.5037932E3,-2.5613962E3,-9.750285E1,1.6597803E2,-2.3520662E3,6.656866E3,-2.2418818E3,-8.985529E2,1.3775809E2,1.1266579E2,3.0616033E3,3.5906818E2,-3.7525166E3,2.8379595E3,-1.1680853E3,-1.3843973E3,8.781878E2,-1.236072E3,1.5201844E3,2.9716562E3,2.6953651E1,3.190885E2,-7.639616E2,1.3698997E3,-6.6930615E2,-8.056049E2,1.79151E3,-4.9107925E3,-1.851263E2,-1.2005024E3,6.748641E2,3.426094E1,3.6092358E2,-1.7221002E3,3.519021E2,-6.9519934E2,2.7692297E3,4.4549316E3,-5.922889E2,-6.671679E3,1.3233781E2,-2.7238562E2,1.8602524E2,-1.4769385E3,6.316128E1,1.5254239E2,6.149091E2,-1.2982266E2,-1.7159563E3,4.9112344E2,-5.744303E2,-7.390237E2,1.5568227E2,4.706452E2,-1.198583E3,1.0986354E3,2.8824362E2,-1.6854932E2,1.5755621E3,-2.494012E3,-2.6198965E2,9.233865E2,-7.9333973E0],"categories":[],"categories_nodes":[],"categories_segments":[],"categories_sizes":[],"default_left":[0,0,0,0,0,0,0,0,0,0,0,0,0,0,0,0,0,0,0,0,0,0,0,0,0,0,0,0,0,0,0,0,0,0,0,0,0,0,0,0,0,0,0,0,0,0,0,0,0,0,0,0,0,0,0,0,0,0,0,0,0,0,0,0,0,0,0],"id":24,"left_children":[1,3,5,7,9,-1,11,13,15,17,19,21,23,25,27,29,31,-1,33,-1,35,37,39,41,43,45,47,-1,-1,-1,49,51,53,-1,-1,-1,-1,55,57,-1,59,61,-1,63,65,-1,-1,-1,-1,-1,-1,-1,-1,-1,-1,-1,-1,-1,-1,-1,-1,-1,-1,-1,-1,-1,-1],"loss_changes":[2.6675228E7,1.3599158E8,2.8164413E8,7.344151E7,2.3232229E8,0E0,6.4764116E7,5.1215404E7,4.690913E7,1.8651648E8,4.1068664E7,6.5555924E7,8.344616E7,5.977823E7,5.7971364E7,2.6615586E7,3.2147056E7,0E0,3.8054456E7,0E0,6.072395E5,5.3860224E7,5.434953E7,8.215744E7,1.823069E8,9.917514E7,2.5638208E8,0E0,0E0,0E0,2.82833E5,1.926288E7,1.2589905E7,0E0,0E0,0E0,0E0,8.932781E7,9.620037E7,0E0,9.399108E6,3.4935216E7,0E0,3.0816592E7,1.1888033E8,0E0,0E0,0E0,0E0,0E0,0E0,0E0,0E0,0E0,0E0,0E0,0E0,0E0,0E0,0E0,0E0,0E0,0E0,0E0,0E0,0E0,0E0],"parents":[2147483647,0,0,1,1,2,2,3,3,4,4,6,6,7,7,8,8,9,9,10,10,11,11,12,12,13,13,14,14,15,15,16,16,18,18,20,20,21,21,22,22,23,23,24,24,25,25,26,26,30,30,31,31,32,32,37,37,38,38,40,40,41,41,43,43,44,44],"right_children":[2,4,6,8,10,-1,12,14,16,18,20,22,24,26,28,30,32,-1,34,-1,36,38,40,42,44,46,48,-1,-1,-1,50,52,54,-1,-1,-1,-1,56,58,-1,60,62,-1,64,66,-1,-1,-1,-1,-1,-1,-1,-1,-1,-1,-1,-1,-1,-1,-1,-1,-1,-1,-1,-1,-1,-1],"split_conditions":[2.2940483E-2,-3.867092E-2,4.6925206E-2,-7.500366E-2,3.4232992E-1,-2.5613962E3,-8.461683E-1,-9.0210766E-2,-1.0213339E0,